    5120
   -8.03947491964042271
    7.44606670623300637
    7.44928788770199013
    7.44928788770199102
   -8.06735587769661322
    7.47203933513819329
    7.47497221661886879
    7.47512215039670913
   -8.06735587769660967
    7.47203933513819418
    7.47512215039670913
    7.47497221661887146
   -8.14583948567654481
    7.54783790382887254
    7.54472543079976798
    7.54783790382887254
   -8.13704935106021487
    7.53705007157958828
    7.53908706471287182
    7.53970292056908864
   -8.15412307395966707
    7.55301958927733796
    7.55475119547750928
    7.55552329822263857
   -8.15971020505397782
    7.55819486556850428
    7.56008271908058926
    7.56054514797558852
   -8.23910640101581748
    7.63426145415603230
    7.63173192850979554
    7.63363794240087756
   -8.13704935106020955
    7.53705007157960249
    7.53970292056909219
    7.53908706471288514
   -8.15971020505399203
    7.55819486556850695
    7.56054514797559651
    7.56008271908059903
   -8.15412307395967240
    7.55301958927735129
    7.55552329822264568
    7.55475119547750662
   -8.23910640101581571
    7.63363794240087312
    7.63173192850979820
    7.63426145415602875
   -8.49094169566844847
    7.86741901982090930
    7.86499161806170477
    7.86759389060406100
   -8.46739455811479225
    7.84577535303371310
    7.84300628132641542
    7.84577535303371487
   -8.49094169566844315
    7.86759389060405212
    7.86499161806169500
    7.86741901982089953
   -8.57948981444551251
    7.94963407101352182
    7.94963407101352804
    7.94700497295107677
   -8.15412307395967417
    7.55475119547751106
    7.55301958927734773
    7.55552329822264657
   -8.13704935106019356
    7.53908706471286738
    7.53705007157958828
    7.53970292056909042
   -8.15971020505396716
    7.56008271908057061
    7.55819486556849540
    7.56054514797556632
   -8.23910640101582636
    7.63426145415603052
    7.63363794240089000
    7.63173192850979110
   -8.06735587769661144
    7.47497221661887234
    7.47203933513819329
    7.47512215039672956
   -8.03947491964042626
    7.44928788770199191
    7.44606670623300282
    7.44928788770197681
   -8.06735587769660789
    7.47512215039670203
    7.47203933513817642
    7.47497221661887057
   -8.14583948567655369
    7.54783790382888409
    7.54783790382888231
    7.54472543079976266
   -8.15971020505396716
    7.56054514797558674
    7.55819486556849807
    7.56008271908056262
   -8.13704935106023264
    7.53970292056909663
    7.53705007157957585
    7.53908706471288070
   -8.15412307395967062
    7.55552329822262525
    7.55301958927734685
    7.55475119547751106
   -8.23910640101579084
    7.63363794240086779
    7.63426145415601720
    7.63173192850976889
   -8.49094169566844137
    7.86741901982089242
    7.86759389060404857
    7.86499161806171365
   -8.49094169566843071
    7.86759389060404590
    7.86741901982089331
    7.86499161806170832
   -8.46739455811479580
    7.84577535303370599
    7.84577535303369711
    7.84300628132641098
   -8.57948981444550896
    7.94700497295108388
    7.94963407101351915
    7.94963407101353159
   -8.15412307395969016
    7.55475119547751284
    7.55552329822267232
    7.55301958927735839
   -8.15971020505396183
    7.56008271908056972
    7.56054514797556454
    7.55819486556849274
   -8.13704935106020777
    7.53908706471289047
    7.53970292056909219
    7.53705007157960072
   -8.23910640101581748
    7.63173192850980264
    7.63363794240086957
    7.63426145415601631
   -8.15971020505396538
    7.56054514797556720
    7.56008271908055463
    7.55819486556849540
   -8.15412307395967062
    7.55552329822265456
    7.55475119547751284
    7.55301958927733974
   -8.13704935106020066
    7.53970292056908242
    7.53908706471287182
    7.53705007157957763
   -8.23910640101583169
    7.63173192850979110
    7.63426145415601454
    7.63363794240089444
   -8.06735587769659901
    7.47497221661885813
    7.47512215039670025
    7.47203933513816931
   -8.06735587769659901
    7.47512215039669226
    7.47497221661884748
    7.47203933513819951
   -8.03947491964041916
    7.44928788770198480
    7.44928788770198036
    7.44606670623300015
   -8.14583948567653415
    7.54472543079976354
    7.54783790382885744
    7.54783790382886632
   -8.46739455811480646
    7.84300628132642075
    7.84577535303371576
    7.84577535303371931
   -8.49094169566844315
    7.86499161806170477
    7.86741901982090752
    7.86759389060407077
   -8.49094169566847334
    7.86499161806171099
    7.86759389060408942
    7.86741901982091729
   -8.57948981444551961
    7.94963407101351560
    7.94700497295109098
    7.94963407101352360
   -9.73520574699199059
    9.01928457317189469
    9.02060718292782404
    9.02060718292781516
   -9.74480781285593700
    9.02844493041367890
    9.02923988022164359
    9.02950446219062819
   -9.74480781285594944
    9.02844493041365759
    9.02950446219064595
    9.02923988022164536
   -9.86735196959769034
    9.14304231266635448
    9.14196962527069346
    9.14304231266637579
   -9.74480781285594944
    9.02923988022163826
    9.02844493041368068
    9.02950446219063885
   -9.73520574699199237
    9.02060718292780983
    9.01928457317190713
    9.02060718292782404
   -9.74480781285595654
    9.02950446219067793
    9.02844493041369134
    9.02923988022164181
   -9.86735196959766370
    9.14304231266636158
    9.14304231266635981
    9.14196962527064549
   -9.74480781285593345
    9.02923988022163826
    9.02950446219064951
    9.02844493041367180
   -9.74480781285595654
    9.02950446219065661
    9.02923988022165425
    9.02844493041368956
   -9.73520574699198704
    9.02060718292781161
    9.02060718292781161
    9.01928457317189824
   -9.86735196959767791
    9.14196962527065082
    9.14304231266638823
    9.14304231266637402
  -10.26093734582597250
    9.50740761711947435
    9.50771665297486912
    9.50771665297488688
  -10.26093734582596539
    9.50771665297487623
    9.50740761711949567
    9.50771665297486201
  -10.26093734582598671
    9.50771665297488155
    9.50771665297487445
    9.50740761711949922
  -10.40034380900844013
    9.63687675186871751
    9.63687675186874593
    9.63687675186872816
   -8.03947491964042271
    7.44606670623300637
    7.44928788770198747
    7.44928788770198924
   -8.06735587769661322
    7.47203933513819152
    7.47497221661887057
    7.47512215039670913
   -8.06735587769661500
    7.47203933513819329
    7.47512215039671180
    7.47497221661886702
   -8.14583948567655192
    7.54783790382887787
    7.54472543079977154
    7.54783790382887343
   -8.13704935106021310
    7.53705007157958917
    7.53908706471287982
    7.53970292056908864
   -8.15412307395967773
    7.55301958927734240
    7.55475119547751284
    7.55552329822263857
   -8.15971020505398315
    7.55819486556849807
    7.56008271908057949
    7.56054514797559030
   -8.23910640101582104
    7.63426145415602253
    7.63173192850980087
    7.63363794240088378
   -8.13704935106021132
    7.53705007157958384
    7.53970292056909042
    7.53908706471287449
   -8.15971020505398847
    7.55819486556851050
    7.56054514797558674
    7.56008271908058660
   -8.15412307395967240
    7.55301958927734685
    7.55552329822263324
    7.55475119547751017
   -8.23910640101582636
    7.63363794240088911
    7.63173192850979909
    7.63426145415603585
   -8.49094169566843782
    7.86741901982091107
    7.86499161806170566
    7.86759389060405923
   -8.46739455811480113
    7.84577535303371576
    7.84300628132642785
    7.84577535303371665
   -8.49094169566844315
    7.86759389060406189
    7.86499161806170122
    7.86741901982090752
   -8.57948981444550540
    7.94963407101352271
    7.94963407101352537
    7.94700497295109010
   -8.15412307395968661
    7.55475119547751195
    7.55301958927734418
    7.55552329822265278
   -8.13704935106019889
    7.53908706471287982
    7.53705007157959095
    7.53970292056908864
   -8.15971020505395295
    7.56008271908057061
    7.55819486556847497
    7.56054514797556276
   -8.23910640101582814
    7.63426145415604651
    7.63363794240088112
    7.63173192850979820
   -8.06735587769659901
    7.47497221661885014
    7.47203933513817553
    7.47512215039670558
   -8.03947491964040317
    7.44928788770197681
    7.44606670623297795
    7.44928788770196171
   -8.06735587769660789
    7.47512215039670380
    7.47203933513819063
    7.47497221661885458
   -8.14583948567654126
    7.54783790382886632
    7.54783790382886366
    7.54472543079975022
   -8.15971020505397604
    7.56054514797557609
    7.55819486556850872
    7.56008271908058038
   -8.13704935106020066
    7.53970292056908775
    7.53705007157958384
    7.53908706471288159
   -8.15412307395968128
    7.55552329822263857
    7.55301958927735662
    7.55475119547752705
   -8.23910640101581393
    7.63363794240086779
    7.63426145415603052
    7.63173192850979820
   -8.49094169566845380
    7.86741901982089953
    7.86759389060403080
    7.86499161806168967
   -8.49094169566846979
    7.86759389060405390
    7.86741901982093239
    7.86499161806170743
   -8.46739455811478514
    7.84577535303370155
    7.84577535303370155
    7.84300628132639943
   -8.57948981444551251
    7.94700497295107411
    7.94963407101351116
    7.94963407101353425
   -8.15412307395968305
    7.55475119547750129
    7.55552329822265190
    7.55301958927735395
   -8.15971020505396538
    7.56008271908058571
    7.56054514797554589
    7.55819486556848563
   -8.13704935106020422
    7.53908706471288070
    7.53970292056908686
    7.53705007157958029
   -8.23910640101581038
    7.63173192850979287
    7.63363794240087756
    7.63426145415601809
   -8.15971020505395650
    7.56054514797556276
    7.56008271908054930
    7.55819486556848297
   -8.15412307395967417
    7.55552329822264479
    7.55475119547751284
    7.55301958927733708
   -8.13704935106020244
    7.53970292056909308
    7.53908706471286028
    7.53705007157958651
   -8.23910640101582814
    7.63173192850979021
    7.63426145415602520
    7.63363794240089000
   -8.06735587769661322
    7.47497221661886879
    7.47512215039670913
    7.47203933513818619
   -8.06735587769660789
    7.47512215039669847
    7.47497221661885280
    7.47203933513819063
   -8.03947491964041205
    7.44928788770198569
    7.44928788770197858
    7.44606670623299838
   -8.14583948567654659
    7.54472543079976532
    7.54783790382887254
    7.54783790382887965
   -8.46739455811480823
    7.84300628132641275
    7.84577535303372731
    7.84577535303373530
   -8.49094169566842716
    7.86499161806168257
    7.86741901982087377
    7.86759389060403524
   -8.49094169566844670
    7.86499161806170299
    7.86759389060405034
    7.86741901982090308
   -8.57948981444552494
    7.94963407101353425
    7.94700497295109276
    7.94963407101352271
   -9.73520574699197638
    9.01928457317188581
    9.02060718292781516
    9.02060718292780095
   -9.74480781285594766
    9.02844493041368601
    9.02923988022165958
    9.02950446219063707
   -9.74480781285592990
    9.02844493041366292
    9.02950446219061931
    9.02923988022164181
   -9.86735196959765659
    9.14304231266635803
    9.14196962527066326
    9.14304231266633671
   -9.74480781285594233
    9.02923988022164536
    9.02844493041367713
    9.02950446219065661
   -9.73520574699199059
    9.02060718292780095
    9.01928457317190535
    9.02060718292781694
   -9.74480781285593878
    9.02950446219062819
    9.02844493041366469
    9.02923988022165069
   -9.86735196959767613
    9.14304231266634737
    9.14304231266636869
    9.14196962527065971
   -9.74480781285593523
    9.02923988022163648
    9.02950446219064418
    9.02844493041367180
   -9.74480781285594411
    9.02950446219065483
    9.02923988022163471
    9.02844493041367713
   -9.73520574699198527
    9.02060718292781871
    9.02060718292781338
    9.01928457317191423
   -9.86735196959767791
    9.14196962527066681
    9.14304231266637224
    9.14304231266635270
  -10.26093734582596895
    9.50740761711948146
    9.50771665297486912
    9.50771665297486379
  -10.26093734582597072
    9.50771665297487267
    9.50740761711949744
    9.50771665297487978
  -10.26093734582596717
    9.50771665297486734
    9.50771665297485313
    9.50740761711947080
  -10.40034380900842947
    9.63687675186871395
    9.63687675186872106
    9.63687675186872106
   -8.03947491964042449
    7.44606670623300637
    7.44928788770198924
    7.44928788770198924
   -8.06735587769661322
    7.47203933513819329
    7.47497221661887234
    7.47512215039671002
   -8.06735587769660967
    7.47203933513819152
    7.47512215039671268
    7.47497221661887323
   -8.14583948567654659
    7.54783790382887432
    7.54472543079977331
    7.54783790382887698
   -8.13704935106021487
    7.53705007157959184
    7.53908706471288070
    7.53970292056910107
   -8.15412307395966529
    7.55301958927733708
    7.55475119547750484
    7.55552329822264301
   -8.15971020505397959
    7.55819486556849895
    7.56008271908058394
    7.56054514797557786
   -8.23910640101581038
    7.63426145415603052
    7.63173192850978577
    7.63363794240087934
   -8.13704935106020955
    7.53705007157959361
    7.53970292056909486
    7.53908706471288692
   -8.15971020505398137
    7.55819486556850784
    7.56054514797557520
    7.56008271908058482
   -8.15412307395966529
    7.55301958927733619
    7.55552329822263058
    7.55475119547750040
   -8.23910640101581748
    7.63363794240086779
    7.63173192850980797
    7.63426145415602786
   -8.49094169566844315
    7.86741901982091107
    7.86499161806169234
    7.86759389060405745
   -8.46739455811479402
    7.84577535303371043
    7.84300628132641364
    7.84577535303371665
   -8.49094169566844492
    7.86759389060406367
    7.86499161806170743
    7.86741901982090130
   -8.57948981444550896
    7.94963407101352448
    7.94963407101352360
    7.94700497295108477
   -8.15412307395969727
    7.55475119547751461
    7.55301958927735306
    7.55552329822267765
   -8.13704935106019356
    7.53908706471287093
    7.53705007157958917
    7.53970292056908242
   -8.15971020505397249
    7.56008271908056440
    7.55819486556848474
    7.56054514797556276
   -8.23910640101580505
    7.63426145415602342
    7.63363794240086868
    7.63173192850977511
   -8.06735587769663098
    7.47497221661889011
    7.47203933513819951
    7.47512215039671890
   -8.03947491964039607
    7.44928788770197059
    7.44606670623297795
    7.44928788770197503
   -8.06735587769662210
    7.47512215039671091
    7.47203933513819418
    7.47497221661887057
   -8.14583948567652705
    7.54783790382886810
    7.54783790382884856
    7.54472543079975022
   -8.15971020505396183
    7.56054514797555832
    7.55819486556850162
    7.56008271908055374
   -8.13704935106019356
    7.53970292056908420
    7.53705007157958740
    7.53908706471287093
   -8.15412307395967062
    7.55552329822263680
    7.55301958927733885
    7.55475119547750484
   -8.23910640101582104
    7.63363794240086868
    7.63426145415603763
    7.63173192850979554
   -8.49094169566843959
    7.86741901982088621
    7.86759389060404235
    7.86499161806169500
   -8.49094169566843604
    7.86759389060403969
    7.86741901982088354
    7.86499161806169944
   -8.46739455811479935
    7.84577535303372020
    7.84577535303371931
    7.84300628132641631
   -8.57948981444551606
    7.94700497295109098
    7.94963407101351827
    7.94963407101353070
   -8.15412307395969194
    7.55475119547750573
    7.55552329822266344
    7.55301958927735217
   -8.15971020505396716
    7.56008271908057949
    7.56054514797556099
    7.55819486556848563
   -8.13704935106020066
    7.53908706471287360
    7.53970292056908065
    7.53705007157958651
   -8.23910640101580682
    7.63173192850977866
    7.63363794240088644
    7.63426145415600743
   -8.15971020505396005
    7.56054514797556898
    7.56008271908056084
    7.55819486556848918
   -8.15412307395967062
    7.55552329822262791
    7.55475119547750396
    7.55301958927733796
   -8.13704935106020066
    7.53970292056907265
    7.53908706471286294
    7.53705007157958118
   -8.23910640101582281
    7.63173192850979287
    7.63426145415604385
    7.63363794240087756
   -8.06735587769662921
    7.47497221661886524
    7.47512215039671002
    7.47203933513820395
   -8.06735587769662388
    7.47512215039672512
    7.47497221661887679
    7.47203933513819507
   -8.03947491964040672
    7.44928788770199368
    7.44928788770196704
    7.44606670623298328
   -8.14583948567652527
    7.54472543079974400
    7.54783790382885211
    7.54783790382885300
   -8.46739455811480468
    7.84300628132641897
    7.84577535303371398
    7.84577535303374063
   -8.49094169566843782
    7.86499161806168079
    7.86741901982087022
    7.86759389060405656
   -8.49094169566843959
    7.86499161806168257
    7.86759389060405301
    7.86741901982089242
   -8.57948981444551428
    7.94963407101352537
    7.94700497295109365
    7.94963407101352804
   -9.73520574699199592
    9.01928457317189647
    9.02060718292781161
    9.02060718292782049
   -9.74480781285593878
    9.02844493041369489
    9.02923988022164181
    9.02950446219066905
   -9.74480781285595299
    9.02844493041368601
    9.02950446219065306
    9.02923988022165247
   -9.86735196959767080
    9.14304231266637757
    9.14196962527066148
    9.14304231266637224
   -9.74480781285593878
    9.02923988022164181
    9.02844493041366469
    9.02950446219063885
   -9.73520574699199059
    9.02060718292781516
    9.01928457317191956
    9.02060718292780983
   -9.74480781285593523
    9.02950446219064062
    9.02844493041368246
    9.02923988022163293
   -9.86735196959765837
    9.14304231266635092
    9.14304231266635092
    9.14196962527065082
   -9.74480781285595299
    9.02923988022165602
    9.02950446219063885
    9.02844493041368956
   -9.74480781285594411
    9.02950446219066727
    9.02923988022163293
    9.02844493041368423
   -9.73520574699199237
    9.02060718292781694
    9.02060718292782759
    9.01928457317189469
   -9.86735196959767435
    9.14196962527066859
    9.14304231266636513
    9.14304231266635625
  -10.26093734582597250
    9.50740761711947968
    9.50771665297488155
    9.50771665297487800
  -10.26093734582596717
    9.50771665297487445
    9.50740761711948856
    9.50771665297488866
  -10.26093734582595829
    9.50771665297485846
    9.50771665297484780
    9.50740761711947258
  -10.40034380900842770
    9.63687675186873705
    9.63687675186872461
    9.63687675186871928
   -8.03947491964042271
    7.44606670623300726
    7.44928788770198835
    7.44928788770198747
   -8.06735587769661500
    7.47203933513819329
    7.47497221661886879
    7.47512215039671357
   -8.06735587769661500
    7.47203933513819152
    7.47512215039670735
    7.47497221661887412
   -8.14583948567654836
    7.54783790382887965
    7.54472543079977687
    7.54783790382887609
   -8.13704935106021487
    7.53705007157958917
    7.53908706471287449
    7.53970292056908420
   -8.15412307395967240
    7.55301958927733441
    7.55475119547750218
    7.55552329822263768
   -8.15971020505398492
    7.55819486556851405
    7.56008271908058660
    7.56054514797558852
   -8.23910640101582281
    7.63426145415603052
    7.63173192850980175
    7.63363794240088644
   -8.13704935106021487
    7.53705007157958740
    7.53970292056909130
    7.53908706471288159
   -8.15971020505398847
    7.55819486556850784
    7.56054514797558319
    7.56008271908058127
   -8.15412307395967595
    7.55301958927734773
    7.55552329822264301
    7.55475119547751284
   -8.23910640101581926
    7.63363794240087756
    7.63173192850979554
    7.63426145415602608
   -8.49094169566844670
    7.86741901982090930
    7.86499161806170655
    7.86759389060406100
   -8.46739455811480113
    7.84577535303371576
    7.84300628132642075
    7.84577535303372287
   -8.49094169566844670
    7.86759389060405834
    7.86499161806170566
    7.86741901982090219
   -8.57948981444550540
    7.94963407101352271
    7.94963407101352804
    7.94700497295109010
   -8.15412307395967950
    7.55475119547750484
    7.55301958927735129
    7.55552329822265190
   -8.13704935106020599
    7.53908706471287715
    7.53705007157958740
    7.53970292056908065
   -8.15971020505396538
    7.56008271908058305
    7.55819486556848030
    7.56054514797555033
   -8.23910640101580505
    7.63426145415601720
    7.63363794240087046
    7.63173192850977600
   -8.06735587769660611
    7.47497221661887057
    7.47203933513819152
    7.47512215039670824
   -8.03947491964041561
    7.44928788770199191
    7.44606670623300015
    7.44928788770198391
   -8.06735587769660434
    7.47512215039669936
    7.47203933513818530
    7.47497221661885280
   -8.14583948567654836
    7.54783790382887521
    7.54783790382887343
    7.54472543079976354
   -8.15971020505395828
    7.56054514797556543
    7.55819486556848830
    7.56008271908055107
   -8.13704935106019889
    7.53970292056908775
    7.53705007157958295
    7.53908706471286472
   -8.15412307395967417
    7.55552329822263946
    7.55301958927734329
    7.55475119547751994
   -8.23910640101582636
    7.63363794240086779
    7.63426145415603408
    7.63173192850981330
   -8.49094169566843959
    7.86741901982088976
    7.86759389060406367
    7.86499161806169500
   -8.49094169566842538
    7.86759389060403436
    7.86741901982089509
    7.86499161806170743
   -8.46739455811480823
    7.84577535303372731
    7.84577535303373264
    7.84300628132642963
   -8.57948981444551784
    7.94700497295108832
    7.94963407101352271
    7.94963407101352804
   -8.15412307395968128
    7.55475119547750840
    7.55552329822265722
    7.55301958927734507
   -8.15971020505396005
    7.56008271908055640
    7.56054514797555743
    7.55819486556849540
   -8.13704935106020955
    7.53908706471286383
    7.53970292056909130
    7.53705007157958029
   -8.23910640101582814
    7.63173192850979643
    7.63363794240087756
    7.63426145415601898
   -8.15971020505397426
    7.56054514797557342
    7.56008271908058127
    7.55819486556850162
   -8.15412307395968305
    7.55552329822263857
    7.55475119547751106
    7.55301958927735395
   -8.13704935106020599
    7.53970292056907976
    7.53908706471287982
    7.53705007157959184
   -8.23910640101581038
    7.63173192850979021
    7.63426145415603674
    7.63363794240087223
   -8.06735587769659546
    7.47497221661883593
    7.47512215039670824
    7.47203933513817464
   -8.06735587769659901
    7.47512215039669670
    7.47497221661884392
    7.47203933513819507
   -8.03947491964040850
    7.44928788770197059
    7.44928788770195549
    7.44606670623300460
   -8.14583948567654303
    7.54472543079976532
    7.54783790382887787
    7.54783790382886455
   -8.46739455811478514
    7.84300628132640121
    7.84577535303368645
    7.84577535303371132
   -8.49094169566847157
    7.86499161806171099
    7.86741901982091640
    7.86759389060407610
   -8.49094169566845380
    7.86499161806169322
    7.86759389060404057
    7.86741901982090486
   -8.57948981444550896
    7.94963407101352892
    7.94700497295108921
    7.94963407101350938
   -9.73520574699199237
    9.01928457317190713
    9.02060718292782582
    9.02060718292782227
   -9.74480781285594588
    9.02844493041367713
    9.02923988022165958
    9.02950446219064595
   -9.74480781285593523
    9.02844493041366825
    9.02950446219066016
    9.02923988022165069
   -9.86735196959767435
    9.14304231266636869
    9.14196962527065971
    9.14304231266636158
   -9.74480781285594233
    9.02923988022164004
    9.02844493041366825
    9.02950446219065839
   -9.73520574699197638
    9.02060718292780805
    9.01928457317188936
    9.02060718292781338
   -9.74480781285593700
    9.02950446219064951
    9.02844493041368246
    9.02923988022165069
   -9.86735196959766547
    9.14304231266636691
    9.14304231266636513
    9.14196962527064549
   -9.74480781285593523
    9.02923988022162938
    9.02950446219066194
    9.02844493041366469
   -9.74480781285594411
    9.02950446219065661
    9.02923988022165425
    9.02844493041366469
   -9.73520574699197994
    9.02060718292781338
    9.02060718292781871
    9.01928457317189114
   -9.86735196959765837
    9.14196962527065260
    9.14304231266636691
    9.14304231266636513
  -10.26093734582597250
    9.50740761711949212
    9.50771665297486379
    9.50771665297489044
  -10.26093734582597250
    9.50771665297486201
    9.50740761711949034
    9.50771665297486912
  -10.26093734582596717
    9.50771665297487445
    9.50771665297486379
    9.50740761711948146
  -10.40034380900842947
    9.63687675186871751
    9.63687675186872283
    9.63687675186872283
   -8.03947491964042271
    7.44606670623300637
    7.44928788770198924
    7.44928788770199191
   -8.06735587769661144
    7.47203933513819152
    7.47497221661887146
    7.47512215039671002
   -8.06735587769661144
    7.47203933513819152
    7.47512215039670558
    7.47497221661886879
   -8.14583948567654303
    7.54783790382887609
    7.54472543079976177
    7.54783790382886988
   -8.13704935106021310
    7.53705007157960072
    7.53908706471288692
    7.53970292056909486
   -8.15412307395967773
    7.55301958927734329
    7.55475119547750928
    7.55552329822264745
   -8.15971020505399203
    7.55819486556850428
    7.56008271908059015
    7.56054514797558319
   -8.23910640101581926
    7.63426145415602253
    7.63173192850980087
    7.63363794240088467
   -8.13704935106021310
    7.53705007157958828
    7.53970292056909486
    7.53908706471288070
   -8.15971020505398492
    7.55819486556850428
    7.56054514797559474
    7.56008271908059282
   -8.15412307395966351
    7.55301958927732997
    7.55552329822262969
    7.55475119547750573
   -8.23910640101581748
    7.63363794240087312
    7.63173192850980797
    7.63426145415603052
   -8.49094169566843959
    7.86741901982090042
    7.86499161806169500
    7.86759389060405656
   -8.46739455811479402
    7.84577535303371221
    7.84300628132641542
    7.84577535303371221
   -8.49094169566845025
    7.86759389060406367
    7.86499161806171188
    7.86741901982090575
   -8.57948981444550896
    7.94963407101353248
    7.94963407101352626
    7.94700497295108121
   -8.15412307395969194
    7.55475119547751639
    7.55301958927735662
    7.55552329822267410
   -8.13704935106020955
    7.53908706471288248
    7.53705007157959184
    7.53970292056909486
   -8.15971020505396183
    7.56008271908057061
    7.55819486556848297
    7.56054514797556720
   -8.23910640101582281
    7.63426145415602164
    7.63363794240088644
    7.63173192850979643
   -8.06735587769659723
    7.47497221661885369
    7.47203933513818530
    7.47512215039670203
   -8.03947491964042449
    7.44928788770199102
    7.44606670623300371
    7.44928788770198302
   -8.06735587769660256
    7.47512215039670647
    7.47203933513818530
    7.47497221661884748
   -8.14583948567653948
    7.54783790382888320
    7.54783790382886099
    7.54472543079974489
   -8.15971020505396361
    7.56054514797556987
    7.55819486556848386
    7.56008271908055285
   -8.13704935106020599
    7.53970292056908775
    7.53705007157958917
    7.53908706471286028
   -8.15412307395967240
    7.55552329822265456
    7.55301958927733796
    7.55475119547751639
   -8.23910640101583169
    7.63363794240087223
    7.63426145415602608
    7.63173192850980353
   -8.49094169566846624
    7.86741901982091640
    7.86759389060408232
    7.86499161806171188
   -8.49094169566844137
    7.86759389060406367
    7.86741901982091196
    7.86499161806169322
   -8.46739455811481179
    7.84577535303372819
    7.84577535303372553
    7.84300628132641542
   -8.57948981444551784
    7.94700497295109010
    7.94963407101352182
    7.94963407101352448
   -8.15412307395967950
    7.55475119547749507
    7.55552329822265101
    7.55301958927733796
   -8.15971020505396716
    7.56008271908057150
    7.56054514797556454
    7.55819486556848741
   -8.13704935106020066
    7.53908706471289136
    7.53970292056908775
    7.53705007157958029
   -8.23910640101582281
    7.63173192850979731
    7.63363794240088822
    7.63426145415602786
   -8.15971020505397426
    7.56054514797557964
    7.56008271908057417
    7.55819486556848652
   -8.15412307395968128
    7.55552329822262969
    7.55475119547750662
    7.55301958927734685
   -8.13704935106022731
    7.53970292056910907
    7.53908706471288781
    7.53705007157959095
   -8.23910640101579084
    7.63173192850977422
    7.63426145415602164
    7.63363794240085891
   -8.06735587769661144
    7.47497221661889188
    7.47512215039673134
    7.47203933513818175
   -8.06735587769660079
    7.47512215039669936
    7.47497221661886702
    7.47203933513819241
   -8.03947491964042982
    7.44928788770197148
    7.44928788770197681
    7.44606670623300104
   -8.14583948567655192
    7.54472543079976532
    7.54783790382888409
    7.54783790382888498
   -8.46739455811479402
    7.84300628132639499
    7.84577535303370954
    7.84577535303370333
   -8.49094169566842893
    7.86499161806169500
    7.86741901982088265
    7.86759389060404768
   -8.49094169566843959
    7.86499161806169411
    7.86759389060405123
    7.86741901982089331
   -8.57948981444551784
    7.94963407101353337
    7.94700497295106256
    7.94963407101351738
   -9.73520574699198882
    9.01928457317189292
    9.02060718292782404
    9.02060718292779740
   -9.74480781285595299
    9.02844493041367357
    9.02923988022165602
    9.02950446219065839
   -9.74480781285593700
    9.02844493041365759
    9.02950446219064062
    9.02923988022164359
   -9.86735196959768857
    9.14304231266637046
    9.14196962527065793
    9.14304231266636691
   -9.74480781285595654
    9.02923988022165425
    9.02844493041367357
    9.02950446219065661
   -9.73520574699199059
    9.02060718292782937
    9.01928457317189647
    9.02060718292782759
   -9.74480781285593700
    9.02950446219065128
    9.02844493041368423
    9.02923988022166846
   -9.86735196959767080
    9.14304231266635448
    9.14304231266636513
    9.14196962527065260
   -9.74480781285594411
    9.02923988022163648
    9.02950446219065839
    9.02844493041365759
   -9.74480781285594233
    9.02950446219065839
    9.02923988022164892
    9.02844493041367180
   -9.73520574699198527
    9.02060718292781694
    9.02060718292781161
    9.01928457317190535
   -9.86735196959768324
    9.14196962527068280
    9.14304231266638290
    9.14304231266637757
  -10.26093734582595829
    9.50740761711948501
    9.50771665297486379
    9.50771665297486024
  -10.26093734582596539
    9.50771665297486379
    9.50740761711947613
    9.50771665297487267
  -10.26093734582597605
    9.50771665297489044
    9.50771665297486557
    9.50740761711950455
  -10.40034380900843303
    9.63687675186872994
    9.63687675186873527
    9.63687675186874415
   -8.03947491964041916
    7.44606670623301525
    7.44928788770198302
    7.44928788770198480
   -8.06735587769661855
    7.47203933513821372
    7.47497221661887767
    7.47512215039670469
   -8.06735587769661322
    7.47203933513820484
    7.47512215039670114
    7.47497221661887146
   -8.14583948567654303
    7.54783790382888053
    7.54472543079976710
    7.54783790382887076
   -8.13704935106022020
    7.53705007157961582
    7.53908706471290202
    7.53970292056910196
   -8.15412307395968305
    7.55301958927733974
    7.55475119547750573
    7.55552329822266255
   -8.15971020505397782
    7.55819486556849540
    7.56008271908057150
    7.56054514797557609
   -8.23910640101582281
    7.63426145415604740
    7.63173192850979376
    7.63363794240089977
   -8.13704935106021487
    7.53705007157959006
    7.53970292056909219
    7.53908706471288959
   -8.15971020505397782
    7.55819486556850340
    7.56054514797559207
    7.56008271908057505
   -8.15412307395967950
    7.55301958927734685
    7.55552329822263946
    7.55475119547751195
   -8.23910640101582104
    7.63363794240087046
    7.63173192850980442
    7.63426145415603408
   -8.49094169566844315
    7.86741901982090397
    7.86499161806170832
    7.86759389060406100
   -8.46739455811480468
    7.84577535303373352
    7.84300628132641098
    7.84577535303370688
   -8.49094169566843249
    7.86759389060405567
    7.86499161806170122
    7.86741901982089686
   -8.57948981444550718
    7.94963407101349873
    7.94963407101351738
    7.94700497295108743
   -8.15412307395968305
    7.55475119547752350
    7.55301958927734329
    7.55552329822265811
   -8.13704935106021132
    7.53908706471288426
    7.53705007157960072
    7.53970292056908242
   -8.15971020505395117
    7.56008271908056972
    7.55819486556848386
    7.56054514797555388
   -8.23910640101579972
    7.63426145415599677
    7.63363794240086957
    7.63173192850977600
   -8.06735587769662743
    7.47497221661887679
    7.47203933513820306
    7.47512215039672334
   -8.03947491964040495
    7.44928788770197681
    7.44606670623299749
    7.44928788770198480
   -8.06735587769660789
    7.47512215039672334
    7.47203933513819774
    7.47497221661886435
   -8.14583948567655547
    7.54783790382888231
    7.54783790382888142
    7.54472543079977243
   -8.15971020505396716
    7.56054514797558408
    7.55819486556849363
    7.56008271908055818
   -8.13704935106020955
    7.53970292056909575
    7.53705007157956697
    7.53908706471288692
   -8.15412307395967062
    7.55552329822264390
    7.55301958927733263
    7.55475119547751639
   -8.23910640101580505
    7.63363794240087223
    7.63426145415602164
    7.63173192850979643
   -8.49094169566844670
    7.86741901982089242
    7.86759389060406367
    7.86499161806171454
   -8.49094169566844670
    7.86759389060404857
    7.86741901982090930
    7.86499161806170477
   -8.46739455811482067
    7.84577535303374418
    7.84577535303372819
    7.84300628132644384
   -8.57948981444551428
    7.94700497295110164
    7.94963407101352537
    7.94963407101354136
   -8.15412307395967062
    7.55475119547750840
    7.55552329822263502
    7.55301958927734063
   -8.15971020505397071
    7.56008271908057417
    7.56054514797556898
    7.55819486556849363
   -8.13704935106019889
    7.53908706471288781
    7.53970292056908242
    7.53705007157959006
   -8.23910640101582281
    7.63173192850980264
    7.63363794240088556
    7.63426145415603319
   -8.15971020505396183
    7.56054514797555921
    7.56008271908055907
    7.55819486556849185
   -8.15412307395968305
    7.55552329822264568
    7.55475119547750484
    7.55301958927734951
   -8.13704935106021665
    7.53970292056909930
    7.53908706471287715
    7.53705007157959361
   -8.23910640101582104
    7.63173192850980264
    7.63426145415603230
    7.63363794240087845
   -8.06735587769661500
    7.47497221661886613
    7.47512215039671535
    7.47203933513819862
   -8.06735587769661500
    7.47512215039671002
    7.47497221661886169
    7.47203933513819596
   -8.03947491964043692
    7.44928788770199901
    7.44928788770199635
    7.44606670623301437
   -8.14583948567655547
    7.54472543079978042
    7.54783790382888764
    7.54783790382889297
   -8.46739455811481889
    7.84300628132642874
    7.84577535303372642
    7.84577535303373530
   -8.49094169566843249
    7.86499161806169678
    7.86741901982087910
    7.86759389060405656
   -8.49094169566844847
    7.86499161806169589
    7.86759389060406367
    7.86741901982090486
   -8.57948981444551073
    7.94963407101353692
    7.94700497295109276
    7.94963407101353869
   -9.73520574699197638
    9.01928457317190713
    9.02060718292782404
    9.02060718292779740
   -9.74480781285594944
    9.02844493041366114
    9.02923988022166135
    9.02950446219063707
   -9.74480781285593345
    9.02844493041365759
    9.02950446219063707
    9.02923988022165069
   -9.86735196959768324
    9.14304231266636513
    9.14196962527066503
    9.14304231266636869
   -9.74480781285595299
    9.02923988022164004
    9.02844493041369667
    9.02950446219063885
   -9.73520574699196217
    9.02060718292779562
    9.01928457317188226
    9.02060718292779207
   -9.74480781285596542
    9.02950446219067082
    9.02844493041368423
    9.02923988022166313
   -9.86735196959767080
    9.14304231266637935
    9.14304231266638290
    9.14196962527065793
   -9.74480781285593878
    9.02923988022164004
    9.02950446219063885
    9.02844493041366469
   -9.74480781285594944
    9.02950446219065128
    9.02923988022165247
    9.02844493041367002
   -9.73520574699197283
    9.02060718292781871
    9.02060718292778674
    9.01928457317190535
   -9.86735196959767791
    9.14196962527066148
    9.14304231266635981
    9.14304231266637402
  -10.26093734582596717
    9.50740761711947613
    9.50771665297486557
    9.50771665297487623
  -10.26093734582594941
    9.50771665297484958
    9.50740761711947791
    9.50771665297486024
  -10.26093734582596717
    9.50771665297486557
    9.50771665297486379
    9.50740761711948501
  -10.40034380900842947
    9.63687675186872461
    9.63687675186872106
    9.63687675186872639
   -8.03947491964042804
    7.44606670623299660
    7.44928788770197414
    7.44928788770199191
   -8.06735587769660256
    7.47203933513818885
    7.47497221661887590
    7.47512215039669758
   -8.06735587769661855
    7.47203933513821461
    7.47512215039670735
    7.47497221661887323
   -8.14583948567654836
    7.54783790382886899
    7.54472543079976621
    7.54783790382887432
   -8.13704935106020599
    7.53705007157957496
    7.53908706471287982
    7.53970292056907798
   -8.15412307395969016
    7.55301958927734773
    7.55475119547752083
    7.55552329822264834
   -8.15971020505397426
    7.55819486556850695
    7.56008271908058482
    7.56054514797558053
   -8.23910640101580682
    7.63426145415602075
    7.63173192850979021
    7.63363794240087667
   -8.13704935106019889
    7.53705007157958828
    7.53970292056908686
    7.53908706471287449
   -8.15971020505396716
    7.55819486556848918
    7.56054514797556898
    7.56008271908057061
   -8.15412307395967417
    7.55301958927733974
    7.55552329822264301
    7.55475119547750573
   -8.23910640101581038
    7.63363794240087223
    7.63173192850978399
    7.63426145415602164
   -8.49094169566844670
    7.86741901982091729
    7.86499161806169056
    7.86759389060405745
   -8.46739455811481001
    7.84577535303372287
    7.84300628132641986
    7.84577535303371931
   -8.49094169566844670
    7.86759389060406455
    7.86499161806170033
    7.86741901982090841
   -8.57948981444551251
    7.94963407101351915
    7.94963407101352271
    7.94700497295108743
   -8.15412307395968661
    7.55475119547751373
    7.55301958927733530
    7.55552329822265367
   -8.13704935106020422
    7.53908706471290291
    7.53705007157958295
    7.53970292056908686
   -8.15971020505397071
    7.56008271908056528
    7.55819486556849540
    7.56054514797557609
   -8.23910640101581215
    7.63426145415601010
    7.63363794240087934
    7.63173192850979376
   -8.06735587769662210
    7.47497221661886879
    7.47203933513820484
    7.47512215039671535
   -8.03947491964040495
    7.44928788770197237
    7.44606670623299749
    7.44928788770198214
   -8.06735587769661144
    7.47512215039671268
    7.47203933513819951
    7.47497221661886790
   -8.14583948567656435
    7.54783790382887254
    7.54783790382889741
    7.54472543079977687
   -8.15971020505397249
    7.56054514797557253
    7.55819486556850872
    7.56008271908058216
   -8.13704935106019711
    7.53970292056907354
    7.53705007157958651
    7.53908706471286560
   -8.15412307395964753
    7.55552329822261548
    7.55301958927732642
    7.55475119547747997
   -8.23910640101580860
    7.63363794240086779
    7.63426145415603141
    7.63173192850977689
   -8.49094169566845558
    7.86741901982092173
    7.86759389060405745
    7.86499161806171720
   -8.49094169566843959
    7.86759389060407077
    7.86741901982092440
    7.86499161806168523
   -8.46739455811480290
    7.84577535303371576
    7.84577535303372375
    7.84300628132641542
   -8.57948981444551606
    7.94700497295108210
    7.94963407101352804
    7.94963407101352715
   -8.15412307395967595
    7.55475119547750751
    7.55552329822264301
    7.55301958927734240
   -8.15971020505397071
    7.56008271908057150
    7.56054514797557520
    7.55819486556850340
   -8.13704935106020777
    7.53908706471287360
    7.53970292056909841
    7.53705007157959184
   -8.23910640101581571
    7.63173192850979021
    7.63363794240087667
    7.63426145415602697
   -8.15971020505397604
    7.56054514797557431
    7.56008271908057150
    7.55819486556849274
   -8.15412307395967773
    7.55552329822263946
    7.55475119547750573
    7.55301958927733974
   -8.13704935106019889
    7.53970292056908153
    7.53908706471287360
    7.53705007157958473
   -8.23910640101581215
    7.63173192850979643
    7.63426145415602875
    7.63363794240087312
   -8.06735587769660434
    7.47497221661886613
    7.47512215039670824
    7.47203933513819329
   -8.06735587769661677
    7.47512215039670824
    7.47497221661885902
    7.47203933513818708
   -8.03947491964042982
    7.44928788770198480
    7.44928788770198036
    7.44606670623300726
   -8.14583948567654481
    7.54472543079977598
    7.54783790382887876
    7.54783790382887876
   -8.46739455811479580
    7.84300628132641453
    7.84577535303371221
    7.84577535303371576
   -8.49094169566843604
    7.86499161806168878
    7.86741901982091196
    7.86759389060405301
   -8.49094169566844315
    7.86499161806170743
    7.86759389060406189
    7.86741901982089420
   -8.57948981444551428
    7.94963407101351738
    7.94700497295108654
    7.94963407101350850
   -9.73520574699197105
    9.01928457317189292
    9.02060718292780628
    9.02060718292780628
   -9.74480781285593523
    9.02844493041367357
    9.02923988022162405
    9.02950446219065661
   -9.74480781285593878
    9.02844493041366469
    9.02950446219062819
    9.02923988022163471
   -9.86735196959767791
    9.14304231266637046
    9.14196962527066859
    9.14304231266636869
   -9.74480781285593878
    9.02923988022164004
    9.02844493041367890
    9.02950446219063885
   -9.73520574699197461
    9.02060718292779917
    9.01928457317189114
    9.02060718292781516
   -9.74480781285594233
    9.02950446219063885
    9.02844493041367713
    9.02923988022165069
   -9.86735196959767080
    9.14304231266637046
    9.14304231266636513
    9.14196962527066681
   -9.74480781285593700
    9.02923988022163648
    9.02950446219063174
    9.02844493041367180
   -9.74480781285593700
    9.02950446219063885
    9.02923988022164181
    9.02844493041366825
   -9.73520574699197461
    9.02060718292780628
    9.02060718292780628
    9.01928457317189647
   -9.86735196959767791
    9.14196962527067392
    9.14304231266637402
    9.14304231266637224
  -10.26093734582596895
    9.50740761711948679
    9.50771665297487090
    9.50771665297487623
  -10.26093734582596717
    9.50771665297486912
    9.50740761711949744
    9.50771665297487267
  -10.26093734582596895
    9.50771665297487445
    9.50771665297487267
    9.50740761711949389
  -10.40034380900842947
    9.63687675186872461
    9.63687675186872283
    9.63687675186871928
   -8.03947491964042094
    7.44606670623301614
    7.44928788770199102
    7.44928788770198036
   -8.06735587769660434
    7.47203933513820928
    7.47497221661886613
    7.47512215039670203
   -8.06735587769660079
    7.47203933513819774
    7.47512215039670647
    7.47497221661885369
   -8.14583948567655014
    7.54783790382886988
    7.54472543079976976
    7.54783790382887432
   -8.13704935106020599
    7.53705007157959272
    7.53908706471288781
    7.53970292056910019
   -8.15412307395967773
    7.55301958927733441
    7.55475119547750573
    7.55552329822264745
   -8.15971020505396183
    7.55819486556848119
    7.56008271908056440
    7.56054514797556010
   -8.23910640101582992
    7.63426145415602964
    7.63173192850980531
    7.63363794240086957
   -8.13704935106019889
    7.53705007157959894
    7.53970292056907621
    7.53908706471287360
   -8.15971020505396716
    7.55819486556848563
    7.56054514797556898
    7.56008271908057417
   -8.15412307395967773
    7.55301958927734862
    7.55552329822265012
    7.55475119547751639
   -8.23910640101582281
    7.63363794240087845
    7.63173192850979110
    7.63426145415602875
   -8.49094169566846091
    7.86741901982090752
    7.86499161806171010
    7.86759389060406367
   -8.46739455811480823
    7.84577535303372287
    7.84300628132641364
    7.84577535303372553
   -8.49094169566845558
    7.86759389060407610
    7.86499161806170299
    7.86741901982091107
   -8.57948981444548942
    7.94963407101348274
    7.94963407101350406
    7.94700497295106967
   -8.15412307395967950
    7.55475119547750928
    7.55301958927735395
    7.55552329822264035
   -8.13704935106020955
    7.53908706471287893
    7.53705007157959628
    7.53970292056910374
   -8.15971020505396183
    7.56008271908056084
    7.55819486556848119
    7.56054514797556809
   -8.23910640101582636
    7.63426145415602431
    7.63363794240087312
    7.63173192850979731
   -8.06735587769660434
    7.47497221661887501
    7.47203933513819951
    7.47512215039670735
   -8.03947491964041561
    7.44928788770201677
    7.44606670623301081
    7.44928788770198036
   -8.06735587769659723
    7.47512215039667716
    7.47203933513819596
    7.47497221661885991
   -8.14583948567655014
    7.54783790382888586
    7.54783790382887965
    7.54472543079977154
   -8.15971020505396893
    7.56054514797557786
    7.55819486556848830
    7.56008271908057505
   -8.13704935106019889
    7.53970292056907887
    7.53705007157958740
    7.53908706471286472
   -8.15412307395967417
    7.55552329822264301
    7.55301958927733796
    7.55475119547751550
   -8.23910640101581748
    7.63363794240086779
    7.63426145415602964
    7.63173192850978577
   -8.49094169566845736
    7.86741901982091907
    7.86759389060406811
    7.86499161806171188
   -8.49094169566845736
    7.86759389060406367
    7.86741901982090219
    7.86499161806170832
   -8.46739455811481001
    7.84577535303370954
    7.84577535303373352
    7.84300628132642519
   -8.57948981444548942
    7.94700497295105635
    7.94963407101349695
    7.94963407101349695
   -8.15412307395967773
    7.55475119547751195
    7.55552329822265012
    7.55301958927734951
   -8.15971020505397249
    7.56008271908057328
    7.56054514797558053
    7.55819486556849718
   -8.13704935106020955
    7.53908706471287893
    7.53970292056908686
    7.53705007157959894
   -8.23910640101582281
    7.63173192850979554
    7.63363794240087579
    7.63426145415602520
   -8.15971020505397249
    7.56054514797557609
    7.56008271908056795
    7.55819486556849540
   -8.15412307395967950
    7.55552329822264834
    7.55475119547750928
    7.55301958927735129
   -8.13704935106020599
    7.53970292056909308
    7.53908706471287804
    7.53705007157959184
   -8.23910640101582281
    7.63173192850979643
    7.63426145415602608
    7.63363794240087579
   -8.06735587769661322
    7.47497221661885902
    7.47512215039670913
    7.47203933513819507
   -8.06735587769661322
    7.47512215039670647
    7.47497221661886879
    7.47203933513819774
   -8.03947491964043692
    7.44928788770199635
    7.44928788770199635
    7.44606670623301525
   -8.14583948567654481
    7.54472543079976354
    7.54783790382887076
    7.54783790382887432
   -8.46739455811480646
    7.84300628132641720
    7.84577535303371576
    7.84577535303371842
   -8.49094169566844847
    7.86499161806170211
    7.86741901982089864
    7.86759389060405390
   -8.49094169566844315
    7.86499161806170033
    7.86759389060405301
    7.86741901982090397
   -8.57948981444550363
    7.94963407101351915
    7.94700497295108477
    7.94963407101352093
   -9.73520574699199415
    9.01928457317190890
    9.02060718292781871
    9.02060718292782049
   -9.74480781285594766
    9.02844493041368068
    9.02923988022165780
    9.02950446219064595
   -9.74480781285594588
    9.02844493041367002
    9.02950446219064595
    9.02923988022165780
   -9.86735196959766725
    9.14304231266635625
    9.14196962527065793
    9.14304231266636158
   -9.74480781285594588
    9.02923988022165069
    9.02844493041366292
    9.02950446219064595
   -9.73520574699197816
    9.02060718292781161
    9.01928457317189469
    9.02060718292780628
   -9.74480781285594233
    9.02950446219064418
    9.02844493041367002
    9.02923988022164892
   -9.86735196959768146
    9.14304231266637224
    9.14304231266636869
    9.14196962527066681
   -9.74480781285594411
    9.02923988022165247
    9.02950446219065128
    9.02844493041366825
   -9.74480781285594588
    9.02950446219064951
    9.02923988022164892
    9.02844493041367535
   -9.73520574699197994
    9.02060718292780805
    9.02060718292780273
    9.01928457317189292
   -9.86735196959768501
    9.14196962527066326
    9.14304231266637579
    9.14304231266637402
  -10.26093734582596717
    9.50740761711947791
    9.50771665297487090
    9.50771665297486912
  -10.26093734582596184
    9.50771665297486912
    9.50740761711948856
    9.50771665297487267
  -10.26093734582596717
    9.50771665297486734
    9.50771665297487267
    9.50740761711949034
  -10.40034380900842947
    9.63687675186872816
    9.63687675186872639
    9.63687675186871573
   -8.03947491964040140
    7.44606670623298772
    7.44928788770196348
    7.44928788770196793
   -8.06735587769661500
    7.47203933513820573
    7.47497221661887323
    7.47512215039670647
   -8.06735587769660789
    7.47203933513820839
    7.47512215039670114
    7.47497221661886257
   -8.14583948567655547
    7.54783790382887521
    7.54472543079976354
    7.54783790382889652
   -8.13704935106020955
    7.53705007157959272
    7.53908706471288070
    7.53970292056909486
   -8.15412307395968661
    7.55301958927735484
    7.55475119547750218
    7.55552329822266611
   -8.15971020505397426
    7.55819486556849451
    7.56008271908057328
    7.56054514797556898
   -8.23910640101580860
    7.63426145415602075
    7.63173192850978133
    7.63363794240087401
   -8.13704935106019711
    7.53705007157958384
    7.53970292056907088
    7.53908706471285850
   -8.15971020505397782
    7.55819486556849274
    7.56054514797557786
    7.56008271908058216
   -8.15412307395964575
    7.55301958927732731
    7.55552329822261548
    7.55475119547748264
   -8.23910640101581038
    7.63363794240085358
    7.63173192850978133
    7.63426145415602964
   -8.49094169566845380
    7.86741901982092351
    7.86499161806170211
    7.86759389060405745
   -8.46739455811479580
    7.84577535303372553
    7.84300628132642341
    7.84577535303372553
   -8.49094169566843426
    7.86759389060405034
    7.86499161806167812
    7.86741901982090397
   -8.57948981444551784
    7.94963407101351915
    7.94963407101352715
    7.94700497295106612
   -8.15412307395968305
    7.55475119547749063
    7.55301958927734507
    7.55552329822265722
   -8.13704935106020244
    7.53908706471287360
    7.53705007157959095
    7.53970292056908420
   -8.15971020505397426
    7.56008271908058216
    7.55819486556849007
    7.56054514797558941
   -8.23910640101581038
    7.63426145415602075
    7.63363794240088378
    7.63173192850978754
   -8.06735587769660789
    7.47497221661885991
    7.47203933513819418
    7.47512215039670380
   -8.03947491964042982
    7.44928788770199635
    7.44606670623300904
    7.44928788770198569
   -8.06735587769661855
    7.47512215039672157
    7.47203933513820040
    7.47497221661887679
   -8.14583948567654836
    7.54783790382886810
    7.54783790382887876
    7.54472543079977154
   -8.15971020505397071
    7.56054514797557342
    7.55819486556850073
    7.56008271908057061
   -8.13704935106019889
    7.53970292056909130
    7.53705007157958740
    7.53908706471287271
   -8.15412307395967773
    7.55552329822264568
    7.55301958927734329
    7.55475119547750928
   -8.23910640101581393
    7.63363794240087135
    7.63426145415602520
    7.63173192850978754
   -8.49094169566844670
    7.86741901982090486
    7.86759389060406011
    7.86499161806169589
   -8.49094169566844670
    7.86759389060406011
    7.86741901982090486
    7.86499161806170743
   -8.46739455811480290
    7.84577535303372287
    7.84577535303372287
    7.84300628132642696
   -8.57948981444550896
    7.94700497295108388
    7.94963407101351738
    7.94963407101351915
   -8.15412307395967240
    7.55475119547750040
    7.55552329822264390
    7.55301958927733352
   -8.15971020505397426
    7.56008271908057417
    7.56054514797557609
    7.55819486556848918
   -8.13704935106019356
    7.53908706471287715
    7.53970292056908686
    7.53705007157957763
   -8.23910640101581038
    7.63173192850979820
    7.63363794240087934
    7.63426145415602786
   -8.15971020505397604
    7.56054514797557609
    7.56008271908057594
    7.55819486556850073
   -8.15412307395967773
    7.55552329822264390
    7.55475119547751017
    7.55301958927734329
   -8.13704935106020955
    7.53970292056908686
    7.53908706471287893
    7.53705007157959628
   -8.23910640101581748
    7.63173192850978754
    7.63426145415602431
    7.63363794240087223
   -8.06735587769661500
    7.47497221661887767
    7.47512215039670647
    7.47203933513818441
   -8.06735587769661322
    7.47512215039670558
    7.47497221661886702
    7.47203933513819241
   -8.03947491964043159
    7.44928788770199368
    7.44928788770197681
    7.44606670623301170
   -8.14583948567655014
    7.54472543079976621
    7.54783790382887965
    7.54783790382887876
   -8.46739455811479935
    7.84300628132641009
    7.84577535303371043
    7.84577535303371398
   -8.49094169566844492
    7.86499161806169056
    7.86741901982090042
    7.86759389060405212
   -8.49094169566843782
    7.86499161806170388
    7.86759389060405123
    7.86741901982089953
   -8.57948981444550896
    7.94963407101351649
    7.94700497295108832
    7.94963407101350583
   -9.73520574699197283
    9.01928457317190180
    9.02060718292780273
    9.02060718292780628
   -9.74480781285593523
    9.02844493041366825
    9.02923988022163293
    9.02950446219063885
   -9.74480781285594411
    9.02844493041366292
    9.02950446219065306
    9.02923988022163648
   -9.86735196959767080
    9.14304231266635981
    9.14196962527066859
    9.14304231266636691
   -9.74480781285593523
    9.02923988022163648
    9.02844493041367180
    9.02950446219063529
   -9.73520574699197283
    9.02060718292780450
    9.01928457317189647
    9.02060718292780273
   -9.74480781285593345
    9.02950446219064951
    9.02844493041367713
    9.02923988022164181
   -9.86735196959767791
    9.14304231266637046
    9.14304231266636691
    9.14196962527067214
   -9.74480781285594233
    9.02923988022165247
    9.02950446219064418
    9.02844493041366469
   -9.74480781285594766
    9.02950446219065306
    9.02923988022163293
    9.02844493041366825
   -9.73520574699197816
    9.02060718292782049
    9.02060718292780450
    9.01928457317188936
   -9.86735196959766370
    9.14196962527067214
    9.14304231266636336
    9.14304231266638112
  -10.26093734582597250
    9.50740761711947791
    9.50771665297487090
    9.50771665297486912
  -10.26093734582596717
    9.50771665297486912
    9.50740761711949744
    9.50771665297487445
  -10.26093734582597961
    9.50771665297487445
    9.50771665297487445
    9.50740761711949389
  -10.40034380900843125
    9.63687675186872816
    9.63687675186872106
    9.63687675186872106
   -8.03947491964041028
    7.44606670623299571
    7.44928788770196793
    7.44928788770198569
   -8.06735587769662210
    7.47203933513821195
    7.47497221661888478
    7.47512215039671890
   -8.06735587769660789
    7.47203933513819507
    7.47512215039670469
    7.47497221661886879
   -8.14583948567656257
    7.54783790382891073
    7.54472543079977687
    7.54783790382889386
   -8.13704935106020422
    7.53705007157960072
    7.53908706471289491
    7.53970292056908420
   -8.15412307395968661
    7.55301958927735928
    7.55475119547750840
    7.55552329822266788
   -8.15971020505395295
    7.55819486556848030
    7.56008271908055995
    7.56054514797555743
   -8.23910640101579794
    7.63426145415598167
    7.63173192850977600
    7.63363794240086690
   -8.13704935106020955
    7.53705007157958118
    7.53970292056907976
    7.53908706471288426
   -8.15971020505396538
    7.55819486556849718
    7.56054514797556987
    7.56008271908056617
   -8.15412307395967240
    7.55301958927733885
    7.55552329822264834
    7.55475119547751373
   -8.23910640101581571
    7.63363794240088023
    7.63173192850979198
    7.63426145415601276
   -8.49094169566844670
    7.86741901982091019
    7.86499161806171099
    7.86759389060405834
   -8.46739455811483133
    7.84577535303372997
    7.84300628132644828
    7.84577535303374241
   -8.49094169566844492
    7.86759389060405212
    7.86499161806169500
    7.86741901982091285
   -8.57948981444551784
    7.94963407101354491
    7.94963407101352093
    7.94700497295109276
   -8.15412307395968128
    7.55475119547750928
    7.55301958927734685
    7.55552329822264568
   -8.13704935106021132
    7.53908706471290113
    7.53705007157960427
    7.53970292056909575
   -8.15971020505397249
    7.56008271908059015
    7.55819486556849807
    7.56054514797557964
   -8.23910640101582636
    7.63426145415603141
    7.63363794240087845
    7.63173192850979554
   -8.06735587769661677
    7.47497221661886968
    7.47203933513821106
    7.47512215039671268
   -8.03947491964041383
    7.44928788770199635
    7.44606670623300371
    7.44928788770198036
   -8.06735587769661677
    7.47512215039671446
    7.47203933513819951
    7.47497221661886968
   -8.14583948567654303
    7.54783790382888142
    7.54783790382887076
    7.54472543079976621
   -8.15971020505397604
    7.56054514797559207
    7.55819486556850606
    7.56008271908057683
   -8.13704935106021487
    7.53970292056909042
    7.53705007157959717
    7.53908706471289136
   -8.15412307395967595
    7.55552329822264035
    7.55301958927733796
    7.55475119547751195
   -8.23910640101582636
    7.63363794240088023
    7.63426145415603763
    7.63173192850980620
   -8.49094169566843782
    7.86741901982091552
    7.86759389060405656
    7.86499161806170299
   -8.49094169566843249
    7.86759389060404501
    7.86741901982088976
    7.86499161806170033
   -8.46739455811480823
    7.84577535303371487
    7.84577535303370421
    7.84300628132641364
   -8.57948981444551251
    7.94700497295109365
    7.94963407101352093
    7.94963407101350494
   -8.15412307395968483
    7.55475119547750751
    7.55552329822265367
    7.55301958927734951
   -8.15971020505396183
    7.56008271908056528
    7.56054514797555477
    7.55819486556849185
   -8.13704935106021487
    7.53908706471287804
    7.53970292056910640
    7.53705007157959983
   -8.23910640101582104
    7.63173192850979998
    7.63363794240088911
    7.63426145415603497
   -8.15971020505397071
    7.56054514797557342
    7.56008271908058038
    7.55819486556850251
   -8.15412307395967240
    7.55552329822263857
    7.55475119547750573
    7.55301958927733441
   -8.13704935106020066
    7.53970292056907798
    7.53908706471287715
    7.53705007157958384
   -8.23910640101582104
    7.63173192850980442
    7.63426145415603230
    7.63363794240088911
   -8.06735587769661500
    7.47497221661887234
    7.47512215039671002
    7.47203933513819152
   -8.06735587769662033
    7.47512215039673400
    7.47497221661888211
    7.47203933513819774
   -8.03947491964043515
    7.44928788770199990
    7.44928788770199457
    7.44606670623301081
   -8.14583948567655725
    7.54472543079977687
    7.54783790382890274
    7.54783790382887787
   -8.46739455811481712
    7.84300628132644739
    7.84577535303373974
    7.84577535303372819
   -8.49094169566845203
    7.86499161806170211
    7.86741901982089864
    7.86759389060406633
   -8.49094169566843071
    7.86499161806169944
    7.86759389060405034
    7.86741901982088265
   -8.57948981444551073
    7.94963407101352182
    7.94700497295109631
    7.94963407101351560
   -9.73520574699197105
    9.01928457317191068
    9.02060718292781161
    9.02060718292782227
   -9.74480781285593345
    9.02844493041365936
    9.02923988022164359
    9.02950446219063885
   -9.74480781285595121
    9.02844493041367713
    9.02950446219064062
    9.02923988022166490
   -9.86735196959767791
    9.14304231266638467
    9.14196962527065793
    9.14304231266637579
   -9.74480781285594233
    9.02923988022164181
    9.02844493041367890
    9.02950446219064240
   -9.73520574699196928
    9.02060718292780628
    9.01928457317190535
    9.02060718292779207
   -9.74480781285596009
    9.02950446219067260
    9.02844493041368068
    9.02923988022164892
   -9.86735196959766903
    9.14304231266635981
    9.14304231266636513
    9.14196962527066681
   -9.74480781285595299
    9.02923988022163826
    9.02950446219064951
    9.02844493041369844
   -9.74480781285596720
    9.02950446219065839
    9.02923988022165958
    9.02844493041367890
   -9.73520574699197105
    9.02060718292780628
    9.02060718292780628
    9.01928457317188048
   -9.86735196959767613
    9.14196962527065260
    9.14304231266636869
    9.14304231266637935
  -10.26093734582596717
    9.50740761711947791
    9.50771665297487267
    9.50771665297487090
  -10.26093734582595118
    9.50771665297484780
    9.50740761711947613
    9.50771665297485846
  -10.26093734582596717
    9.50771665297486734
    9.50771665297485846
    9.50740761711949389
  -10.40034380900843125
    9.63687675186872639
    9.63687675186872994
    9.63687675186872461
   -8.03947491964042982
    7.44606670623300992
    7.44928788770199279
    7.44928788770199279
   -8.06735587769660967
    7.47203933513819329
    7.47497221661886790
    7.47512215039670824
   -8.06735587769661144
    7.47203933513819329
    7.47512215039670025
    7.47497221661887234
   -8.14583948567654303
    7.54783790382887521
    7.54472543079976354
    7.54783790382886810
   -8.13704935106020777
    7.53705007157958473
    7.53908706471287626
    7.53970292056909219
   -8.15412307395967773
    7.55301958927734418
    7.55475119547751817
    7.55552329822264657
   -8.15971020505397071
    7.55819486556849807
    7.56008271908057061
    7.56054514797557875
   -8.23910640101582459
    7.63426145415603230
    7.63173192850979731
    7.63363794240087934
   -8.13704935106020955
    7.53705007157958828
    7.53970292056909575
    7.53908706471287982
   -8.15971020505397249
    7.55819486556849629
    7.56054514797558053
    7.56008271908056706
   -8.15412307395967773
    7.55301958927734862
    7.55552329822264745
    7.55475119547751817
   -8.23910640101582281
    7.63363794240087756
    7.63173192850979376
    7.63426145415603141
   -8.49094169566844847
    7.86741901982090042
    7.86499161806170299
    7.86759389060405301
   -8.46739455811480823
    7.84577535303371931
    7.84300628132641897
    7.84577535303371754
   -8.49094169566844670
    7.86759389060406100
    7.86499161806169589
    7.86741901982091107
   -8.57948981444550896
    7.94963407101352182
    7.94963407101352271
    7.94700497295108477
   -8.15412307395967240
    7.55475119547750840
    7.55301958927733619
    7.55552329822265722
   -8.13704935106019889
    7.53908706471286294
    7.53705007157958118
    7.53970292056907176
   -8.15971020505396893
    7.56008271908056972
    7.55819486556849451
    7.56054514797557342
   -8.23910640101581393
    7.63426145415602786
    7.63363794240087401
    7.63173192850979465
   -8.06735587769659901
    7.47497221661886613
    7.47203933513817820
    7.47512215039670203
   -8.03947491964041205
    7.44928788770199013
    7.44606670623299483
    7.44928788770198214
   -8.06735587769660611
    7.47512215039670824
    7.47203933513819951
    7.47497221661887146
   -8.14583948567655369
    7.54783790382887965
    7.54783790382887698
    7.54472543079977775
   -8.15971020505396005
    7.56054514797556632
    7.55819486556848474
    7.56008271908056617
   -8.13704935106020422
    7.53970292056909575
    7.53705007157959361
    7.53908706471289047
   -8.15412307395967240
    7.55552329822265278
    7.55301958927734240
    7.55475119547750484
   -8.23910640101582992
    7.63363794240088378
    7.63426145415602342
    7.63173192850978754
   -8.49094169566846624
    7.86741901982091374
    7.86759389060406367
    7.86499161806172342
   -8.49094169566845913
    7.86759389060407877
    7.86741901982090486
    7.86499161806170299
   -8.46739455811481179
    7.84577535303373796
    7.84577535303373086
    7.84300628132642874
   -8.57948981444548586
    7.94700497295107144
    7.94963407101349340
    7.94963407101349073
   -8.15412307395967417
    7.55475119547751284
    7.55552329822265367
    7.55301958927735395
   -8.15971020505396716
    7.56008271908056706
    7.56054514797557786
    7.55819486556850073
   -8.13704935106020599
    7.53908706471287271
    7.53970292056907088
    7.53705007157958651
   -8.23910640101581393
    7.63173192850978399
    7.63363794240086690
    7.63426145415602520
   -8.15971020505396005
    7.56054514797556187
    7.56008271908056084
    7.55819486556848208
   -8.15412307395967062
    7.55552329822263946
    7.55475119547750218
    7.55301958927734685
   -8.13704935106020422
    7.53970292056910019
    7.53908706471288337
    7.53705007157959628
   -8.23910640101582104
    7.63173192850979287
    7.63426145415603141
    7.63363794240087223
   -8.06735587769660079
    7.47497221661887057
    7.47512215039669936
    7.47203933513817731
   -8.06735587769660789
    7.47512215039671801
    7.47497221661886169
    7.47203933513820218
   -8.03947491964042271
    7.44928788770200612
    7.44928788770197858
    7.44606670623300282
   -8.14583948567655547
    7.54472543079976088
    7.54783790382887609
    7.54783790382886988
   -8.46739455811480646
    7.84300628132641720
    7.84577535303372642
    7.84577535303372553
   -8.49094169566845558
    7.86499161806171010
    7.86741901982091019
    7.86759389060405923
   -8.49094169566845558
    7.86499161806170566
    7.86759389060406900
    7.86741901982090397
   -8.57948981444548231
    7.94963407101350050
    7.94700497295106700
    7.94963407101349251
   -9.73520574699197638
    9.01928457317190180
    9.02060718292779917
    9.02060718292780805
   -9.74480781285593700
    9.02844493041367357
    9.02923988022164892
    9.02950446219064951
   -9.74480781285594233
    9.02844493041367713
    9.02950446219064595
    9.02923988022164892
   -9.86735196959767968
    9.14304231266637046
    9.14196962527067036
    9.14304231266637402
   -9.74480781285594588
    9.02923988022165247
    9.02844493041367535
    9.02950446219065306
   -9.73520574699198704
    9.02060718292781871
    9.01928457317190535
    9.02060718292781871
   -9.74480781285594944
    9.02950446219065128
    9.02844493041368423
    9.02923988022165069
   -9.86735196959766903
    9.14304231266636691
    9.14304231266636158
    9.14196962527065438
   -9.74480781285594233
    9.02923988022164892
    9.02950446219064951
    9.02844493041367002
   -9.74480781285594588
    9.02950446219064951
    9.02923988022164004
    9.02844493041366825
   -9.73520574699197994
    9.02060718292780805
    9.02060718292780095
    9.01928457317190535
   -9.86735196959767968
    9.14196962527066681
    9.14304231266637402
    9.14304231266637579
  -10.26093734582596717
    9.50740761711948501
    9.50771665297486912
    9.50771665297487445
  -10.26093734582596007
    9.50771665297486379
    9.50740761711948679
    9.50771665297487090
  -10.26093734582596007
    9.50771665297487090
    9.50771665297487090
    9.50740761711948856
  -10.40034380900842947
    9.63687675186871928
    9.63687675186872283
    9.63687675186872639
   -8.03947491964042982
    7.44606670623299216
    7.44928788770198835
    7.44928788770198214
   -8.06735587769660611
    7.47203933513819241
    7.47497221661886702
    7.47512215039669936
   -8.06735587769660967
    7.47203933513818974
    7.47512215039671890
    7.47497221661886169
   -8.14583948567654836
    7.54783790382886899
    7.54472543079975999
    7.54783790382887254
   -8.13704935106020955
    7.53705007157958207
    7.53908706471287804
    7.53970292056909308
   -8.15412307395967417
    7.55301958927734240
    7.55475119547750751
    7.55552329822263857
   -8.15971020505397604
    7.55819486556849718
    7.56008271908057505
    7.56054514797558053
   -8.23910640101581571
    7.63426145415602520
    7.63173192850979021
    7.63363794240087845
   -8.13704935106019533
    7.53705007157959983
    7.53970292056908775
    7.53908706471286294
   -8.15971020505397071
    7.55819486556849451
    7.56054514797557342
    7.56008271908057594
   -8.15412307395967062
    7.55301958927733885
    7.55552329822263058
    7.55475119547750040
   -8.23910640101581038
    7.63363794240088556
    7.63173192850979376
    7.63426145415602520
   -8.49094169566844492
    7.86741901982090397
    7.86499161806169500
    7.86759389060406100
   -8.46739455811479935
    7.84577535303371310
    7.84300628132641631
    7.84577535303370865
   -8.49094169566843604
    7.86759389060404857
    7.86499161806168967
    7.86741901982089065
   -8.57948981444551251
    7.94963407101351560
    7.94963407101351205
    7.94700497295108477
   -8.15412307395967595
    7.55475119547750751
    7.55301958927733885
    7.55552329822264035
   -8.13704935106019889
    7.53908706471287360
    7.53705007157957851
    7.53970292056908598
   -8.15971020505397071
    7.56008271908056972
    7.55819486556849185
    7.56054514797556898
   -8.23910640101581038
    7.63426145415602431
    7.63363794240086957
    7.63173192850978221
   -8.06735587769661677
    7.47497221661887146
    7.47203933513820395
    7.47512215039671002
   -8.03947491964042626
    7.44928788770198302
    7.44606670623300726
    7.44928788770198214
   -8.06735587769660789
    7.47512215039670824
    7.47203933513819596
    7.47497221661887234
   -8.14583948567655014
    7.54783790382888142
    7.54783790382887876
    7.54472543079975644
   -8.15971020505397604
    7.56054514797558319
    7.55819486556850162
    7.56008271908058127
   -8.13704935106019889
    7.53970292056907798
    7.53705007157959184
    7.53908706471287537
   -8.15412307395968305
    7.55552329822265012
    7.55301958927733796
    7.55475119547751284
   -8.23910640101581038
    7.63363794240087401
    7.63426145415601809
    7.63173192850979554
   -8.49094169566845025
    7.86741901982090308
    7.86759389060406544
    7.86499161806171010
   -8.49094169566844492
    7.86759389060406455
    7.86741901982091640
    7.86499161806169855
   -8.46739455811480113
    7.84577535303372198
    7.84577535303371754
    7.84300628132642341
   -8.57948981444551251
    7.94700497295108121
    7.94963407101351915
    7.94963407101351915
   -8.15412307395965286
    7.55475119547748264
    7.55552329822262259
    7.55301958927731754
   -8.15971020505397959
    7.56008271908060880
    7.56054514797557253
    7.55819486556850784
   -8.13704935106019533
    7.53908706471287093
    7.53970292056905222
    7.53705007157960161
   -8.23910640101580327
    7.63173192850977777
    7.63363794240087667
    7.63426145415603141
   -8.15971020505397604
    7.56054514797558763
    7.56008271908058926
    7.55819486556849363
   -8.15412307395968838
    7.55552329822264923
    7.55475119547749330
    7.55301958927734063
   -8.13704935106020244
    7.53970292056909042
    7.53908706471287182
    7.53705007157959983
   -8.23910640101581038
    7.63173192850979021
    7.63426145415602164
    7.63363794240087756
   -8.06735587769661144
    7.47497221661886435
    7.47512215039669314
    7.47203933513819951
   -8.06735587769661322
    7.47512215039670558
    7.47497221661887590
    7.47203933513819063
   -8.03947491964040140
    7.44928788770196526
    7.44928788770196437
    7.44606670623300726
   -8.14583948567656080
    7.54472543079978397
    7.54783790382888231
    7.54783790382889475
   -8.46739455811479935
    7.84300628132642519
    7.84577535303371754
    7.84577535303371487
   -8.49094169566845736
    7.86499161806170299
    7.86741901982092351
    7.86759389060405656
   -8.49094169566844137
    7.86499161806169589
    7.86759389060404768
    7.86741901982089686
   -8.57948981444551606
    7.94963407101352626
    7.94700497295107944
    7.94963407101352804
   -9.73520574699197461
    9.01928457317189469
    9.02060718292780450
    9.02060718292780450
   -9.74480781285593878
    9.02844493041367002
    9.02923988022164181
    9.02950446219063529
   -9.74480781285593700
    9.02844493041367357
    9.02950446219063529
    9.02923988022164181
   -9.86735196959767435
    9.14304231266637402
    9.14196962527066148
    9.14304231266637046
   -9.74480781285593345
    9.02923988022163293
    9.02844493041366469
    9.02950446219063885
   -9.73520574699196928
    9.02060718292780983
    9.01928457317190357
    9.02060718292781338
   -9.74480781285593345
    9.02950446219064418
    9.02844493041366825
    9.02923988022164181
   -9.86735196959767613
    9.14304231266637402
    9.14304231266637224
    9.14196962527066148
   -9.74480781285594944
    9.02923988022164181
    9.02950446219064062
    9.02844493041367713
   -9.74480781285593700
    9.02950446219064062
    9.02923988022164892
    9.02844493041367713
   -9.73520574699197105
    9.02060718292780273
    9.02060718292781516
    9.01928457317189469
   -9.86735196959767080
    9.14196962527066859
    9.14304231266637224
    9.14304231266636158
  -10.26093734582596184
    9.50740761711949389
    9.50771665297487623
    9.50771665297487978
  -10.26093734582596895
    9.50771665297488511
    9.50740761711949744
    9.50771665297488333
  -10.26093734582596539
    9.50771665297486912
    9.50771665297485846
    9.50740761711949567
  -10.40034380900842947
    9.63687675186872994
    9.63687675186872994
    9.63687675186872994
   -8.03947491964043692
    7.44606670623301259
    7.44928788770200612
    7.44928788770198480
   -8.06735587769662210
    7.47203933513820484
    7.47497221661886702
    7.47512215039671268
   -8.06735587769662033
    7.47203933513820040
    7.47512215039670824
    7.47497221661886257
   -8.14583948567655725
    7.54783790382888142
    7.54472543079977598
    7.54783790382888142
   -8.13704935106019356
    7.53705007157959006
    7.53908706471286294
    7.53970292056908509
   -8.15412307395967240
    7.55301958927733175
    7.55475119547750573
    7.55552329822262614
   -8.15971020505398137
    7.55819486556849274
    7.56008271908057594
    7.56054514797558674
   -8.23910640101581926
    7.63426145415605006
    7.63173192850979731
    7.63363794240087401
   -8.13704935106021310
    7.53705007157959450
    7.53970292056910196
    7.53908706471287804
   -8.15971020505396538
    7.55819486556848563
    7.56054514797557431
    7.56008271908056262
   -8.15412307395968661
    7.55301958927735662
    7.55552329822265545
    7.55475119547751461
   -8.23910640101581926
    7.63363794240088733
    7.63173192850980264
    7.63426145415602342
   -8.49094169566845380
    7.86741901982091285
    7.86499161806170299
    7.86759389060406633
   -8.46739455811482600
    7.84577535303372908
    7.84300628132643762
    7.84577535303373530
   -8.49094169566842893
    7.86759389060404768
    7.86499161806168878
    7.86741901982089509
   -8.57948981444551784
    7.94963407101352715
    7.94963407101351915
    7.94700497295109276
   -8.15412307395967773
    7.55475119547751284
    7.55301958927734862
    7.55552329822265634
   -8.13704935106021310
    7.53908706471287537
    7.53705007157959539
    7.53970292056909663
   -8.15971020505397782
    7.56008271908058038
    7.55819486556849540
    7.56054514797558141
   -8.23910640101582281
    7.63426145415603497
    7.63363794240087046
    7.63173192850979731
   -8.06735587769661677
    7.47497221661887146
    7.47203933513819152
    7.47512215039670913
   -8.03947491964041916
    7.44928788770198302
    7.44606670623300282
    7.44928788770198214
   -8.06735587769661500
    7.47512215039672423
    7.47203933513821106
    7.47497221661887767
   -8.14583948567654126
    7.54783790382887787
    7.54783790382886810
    7.54472543079975821
   -8.15971020505397782
    7.56054514797556987
    7.55819486556850162
    7.56008271908057683
   -8.13704935106021665
    7.53970292056909663
    7.53705007157960605
    7.53908706471287093
   -8.15412307395967950
    7.55552329822265367
    7.55301958927733974
    7.55475119547751905
   -8.23910640101582636
    7.63363794240089177
    7.63426145415603674
    7.63173192850978577
   -8.49094169566843426
    7.86741901982088621
    7.86759389060404768
    7.86499161806170477
   -8.49094169566844847
    7.86759389060406544
    7.86741901982091374
    7.86499161806169766
   -8.46739455811480823
    7.84577535303372553
    7.84577535303372287
    7.84300628132641542
   -8.57948981444550896
    7.94700497295108388
    7.94963407101350583
    7.94963407101351915
   -8.15412307395967240
    7.55475119547750928
    7.55552329822264745
    7.55301958927733352
   -8.15971020505396538
    7.56008271908057505
    7.56054514797556720
    7.55819486556848386
   -8.13704935106020777
    7.53908706471287626
    7.53970292056907443
    7.53705007157959095
   -8.23910640101581748
    7.63173192850980175
    7.63363794240087756
    7.63426145415602253
   -8.15971020505395472
    7.56054514797555477
    7.56008271908056440
    7.55819486556847409
   -8.15412307395969016
    7.55552329822265989
    7.55475119547751728
    7.55301958927736461
   -8.13704935106021310
    7.53970292056910640
    7.53908706471287626
    7.53705007157958118
   -8.23910640101580682
    7.63173192850977511
    7.63426145415601809
    7.63363794240086513
   -8.06735587769661322
    7.47497221661887590
    7.47512215039669314
    7.47203933513819951
   -8.06735587769662210
    7.47512215039672689
    7.47497221661888922
    7.47203933513820928
   -8.03947491964040850
    7.44928788770198924
    7.44928788770197148
    7.44606670623299483
   -8.14583948567655902
    7.54472543079979907
    7.54783790382888320
    7.54783790382889208
   -8.46739455811482777
    7.84300628132643496
    7.84577535303375218
    7.84577535303374063
   -8.49094169566844847
    7.86499161806170477
    7.86741901982090575
    7.86759389060405123
   -8.49094169566845380
    7.86499161806168345
    7.86759389060405834
    7.86741901982092262
   -8.57948981444552849
    7.94963407101353070
    7.94700497295109543
    7.94963407101352626
   -9.73520574699197105
    9.01928457317189647
    9.02060718292780628
    9.02060718292780450
   -9.74480781285594411
    9.02844493041366469
    9.02923988022165425
    9.02950446219065128
   -9.74480781285595299
    9.02844493041368246
    9.02950446219064951
    9.02923988022164536
   -9.86735196959766547
    9.14304231266636336
    9.14196962527065615
    9.14304231266636513
   -9.74480781285593167
    9.02923988022163826
    9.02844493041365759
    9.02950446219063174
   -9.73520574699197638
    9.02060718292781516
    9.01928457317190180
    9.02060718292782404
   -9.74480781285594944
    9.02950446219065306
    9.02844493041367713
    9.02923988022164181
   -9.86735196959768501
    9.14304231266635803
    9.14304231266637402
    9.14196962527066681
   -9.74480781285597075
    9.02923988022163826
    9.02950446219066727
    9.02844493041367890
   -9.74480781285595299
    9.02950446219063885
    9.02923988022166135
    9.02844493041368068
   -9.73520574699196573
    9.02060718292779207
    9.02060718292777786
    9.01928457317189292
   -9.86735196959767613
    9.14196962527065082
    9.14304231266636691
    9.14304231266638112
  -10.26093734582596539
    9.50740761711948323
    9.50771665297486379
    9.50771665297487800
  -10.26093734582597250
    9.50771665297486024
    9.50740761711950810
    9.50771665297486734
  -10.26093734582594408
    9.50771665297485136
    9.50771665297485491
    9.50740761711947791
  -10.40034380900842947
    9.63687675186873882
    9.63687675186872639
    9.63687675186872461
   -8.03947491964043337
    7.44606670623301437
    7.44928788770198480
    7.44928788770199724
   -8.06735587769661144
    7.47203933513820306
    7.47497221661885547
    7.47512215039672157
   -8.06735587769661855
    7.47203933513821372
    7.47512215039671979
    7.47497221661888567
   -8.14583948567655725
    7.54783790382889652
    7.54472543079976887
    7.54783790382887521
   -8.13704935106021487
    7.53705007157959184
    7.53908706471289669
    7.53970292056909841
   -8.15412307395967773
    7.55301958927733619
    7.55475119547750040
    7.55552329822265811
   -8.15971020505396538
    7.55819486556848830
    7.56008271908054930
    7.56054514797557342
   -8.23910640101581926
    7.63426145415602342
    7.63173192850980620
    7.63363794240088911
   -8.13704935106020066
    7.53705007157958473
    7.53970292056908065
    7.53908706471286738
   -8.15971020505396183
    7.55819486556849718
    7.56054514797556898
    7.56008271908056440
   -8.15412307395967062
    7.55301958927734240
    7.55552329822263236
    7.55475119547749951
   -8.23910640101582104
    7.63363794240087223
    7.63173192850979376
    7.63426145415603585
   -8.49094169566843071
    7.86741901982089153
    7.86499161806168967
    7.86759389060404057
   -8.46739455811482422
    7.84577535303373530
    7.84300628132642430
    7.84577535303373885
   -8.49094169566845025
    7.86759389060405834
    7.86499161806169855
    7.86741901982091374
   -8.57948981444551073
    7.94963407101352093
    7.94963407101353337
    7.94700497295109010
   -8.15412307395967417
    7.55475119547750928
    7.55301958927732464
    7.55552329822265278
   -8.13704935106020777
    7.53908706471286560
    7.53705007157959628
    7.53970292056908598
   -8.15971020505396538
    7.56008271908058482
    7.55819486556849807
    7.56054514797556276
   -8.23910640101581215
    7.63426145415603141
    7.63363794240086690
    7.63173192850979376
   -8.06735587769660967
    7.47497221661886257
    7.47203933513820306
    7.47512215039669670
   -8.03947491964040317
    7.44928788770196793
    7.44606670623299660
    7.44928788770197325
   -8.06735587769662210
    7.47512215039672956
    7.47203933513820306
    7.47497221661887501
   -8.14583948567656257
    7.54783790382888586
    7.54783790382887698
    7.54472543079978308
   -8.15971020505395117
    7.56054514797555921
    7.55819486556847231
    7.56008271908055729
   -8.13704935106020955
    7.53970292056910552
    7.53705007157958207
    7.53908706471288603
   -8.15412307395969016
    7.55552329822265101
    7.55301958927735129
    7.55475119547752083
   -8.23910640101580682
    7.63363794240084736
    7.63426145415601365
    7.63173192850977511
   -8.49094169566845558
    7.86741901982089864
    7.86759389060406100
    7.86499161806169500
   -8.49094169566844847
    7.86759389060406189
    7.86741901982091196
    7.86499161806171454
   -8.46739455811482422
    7.84577535303373441
    7.84577535303373619
    7.84300628132644384
   -8.57948981444551961
    7.94700497295109454
    7.94963407101352715
    7.94963407101353248
   -8.15412307395967773
    7.55475119547750662
    7.55552329822264568
    7.55301958927734862
   -8.15971020505397604
    7.56008271908057328
    7.56054514797557342
    7.55819486556849629
   -8.13704935106021310
    7.53908706471289136
    7.53970292056909575
    7.53705007157959184
   -8.23910640101582814
    7.63173192850978843
    7.63363794240087667
    7.63426145415603852
   -8.15971020505396893
    7.56054514797557786
    7.56008271908057505
    7.55819486556849540
   -8.15412307395968128
    7.55552329822263324
    7.55475119547750662
    7.55301958927734773
   -8.13704935106021843
    7.53970292056909663
    7.53908706471288514
    7.53705007157960516
   -8.23910640101582281
    7.63173192850980975
    7.63426145415603052
    7.63363794240088467
   -8.06735587769661677
    7.47497221661886524
    7.47512215039671446
    7.47203933513819152
   -8.06735587769662210
    7.47512215039671002
    7.47497221661888211
    7.47203933513820751
   -8.03947491964041916
    7.44928788770198924
    7.44928788770197592
    7.44606670623300460
   -8.14583948567654126
    7.54472543079976443
    7.54783790382887698
    7.54783790382887698
   -8.46739455811480823
    7.84300628132641364
    7.84577535303371043
    7.84577535303372553
   -8.49094169566844847
    7.86499161806169411
    7.86741901982090219
    7.86759389060405923
   -8.49094169566843426
    7.86499161806168967
    7.86759389060405656
    7.86741901982089153
   -8.57948981444550896
    7.94963407101351738
    7.94700497295107589
    7.94963407101351827
   -9.73520574699197283
    9.01928457317189114
    9.02060718292778141
    9.02060718292778851
   -9.74480781285595477
    9.02844493041368246
    9.02923988022166668
    9.02950446219064418
   -9.74480781285597075
    9.02844493041370022
    9.02950446219067615
    9.02923988022165780
   -9.86735196959767435
    9.14304231266637402
    9.14196962527065438
    9.14304231266638112
   -9.74480781285594766
    9.02923988022163648
    9.02844493041368246
    9.02950446219062819
   -9.73520574699198349
    9.02060718292782227
    9.01928457317189824
    9.02060718292780805
   -9.74480781285593523
    9.02950446219062819
    9.02844493041366114
    9.02923988022163826
   -9.86735196959767791
    9.14304231266638467
    9.14304231266637935
    9.14196962527066148
   -9.74480781285594944
    9.02923988022163826
    9.02950446219065128
    9.02844493041368246
   -9.74480781285594411
    9.02950446219064418
    9.02923988022164536
    9.02844493041367357
   -9.73520574699197105
    9.02060718292781694
    9.02060718292779917
    9.01928457317189292
   -9.86735196959767080
    9.14196962527066326
    9.14304231266637046
    9.14304231266636158
  -10.26093734582597250
    9.50740761711950810
    9.50771665297486557
    9.50771665297484425
  -10.26093734582596007
    9.50771665297487267
    9.50740761711948146
    9.50771665297486379
  -10.26093734582594941
    9.50771665297486024
    9.50771665297485846
    9.50740761711947791
  -10.40034380900844191
    9.63687675186871928
    9.63687675186871928
    9.63687675186874060
   -8.03947491964042804
    7.44606670623301170
    7.44928788770197947
    7.44928788770198391
   -8.06735587769661500
    7.47203933513820040
    7.47497221661886435
    7.47512215039670114
   -8.06735587769660789
    7.47203933513818619
    7.47512215039670913
    7.47497221661886702
   -8.14583948567654659
    7.54783790382887432
    7.54472543079976976
    7.54783790382888053
   -8.13704935106020066
    7.53705007157959272
    7.53908706471286916
    7.53970292056909130
   -8.15412307395967417
    7.55301958927732997
    7.55475119547751106
    7.55552329822263147
   -8.15971020505397782
    7.55819486556848474
    7.56008271908057061
    7.56054514797557609
   -8.23910640101580505
    7.63426145415602075
    7.63173192850979287
    7.63363794240088112
   -8.13704935106020777
    7.53705007157959006
    7.53970292056909130
    7.53908706471287982
   -8.15971020505397604
    7.55819486556849274
    7.56054514797557875
    7.56008271908057861
   -8.15412307395967595
    7.55301958927734240
    7.55552329822263857
    7.55475119547750662
   -8.23910640101581215
    7.63363794240087756
    7.63173192850978754
    7.63426145415602342
   -8.49094169566843604
    7.86741901982089331
    7.86499161806169411
    7.86759389060405034
   -8.46739455811479935
    7.84577535303371310
    7.84300628132641453
    7.84577535303371398
   -8.49094169566844492
    7.86759389060405390
    7.86499161806169322
    7.86741901982090219
   -8.57948981444551251
    7.94963407101351915
    7.94963407101351205
    7.94700497295109187
   -8.15412307395964575
    7.55475119547747820
    7.55301958927732997
    7.55552329822262347
   -8.13704935106020066
    7.53908706471288248
    7.53705007157958295
    7.53970292056906466
   -8.15971020505397604
    7.56008271908059104
    7.55819486556850961
    7.56054514797556987
   -8.23910640101581215
    7.63426145415602964
    7.63363794240087223
    7.63173192850977333
   -8.06735587769661677
    7.47497221661885991
    7.47203933513821195
    7.47512215039668693
   -8.03947491964040672
    7.44928788770197148
    7.44606670623300637
    7.44928788770197503
   -8.06735587769661500
    7.47512215039669847
    7.47203933513819596
    7.47497221661887945
   -8.14583948567656257
    7.54783790382888586
    7.54783790382888764
    7.54472543079977687
   -8.15971020505397249
    7.56054514797557164
    7.55819486556848474
    7.56008271908058571
   -8.13704935106020244
    7.53970292056908420
    7.53705007157959805
    7.53908706471288159
   -8.15412307395968661
    7.55552329822264923
    7.55301958927735306
    7.55475119547750040
   -8.23910640101581038
    7.63363794240087223
    7.63426145415604029
    7.63173192850979376
   -8.49094169566844315
    7.86741901982089686
    7.86759389060404235
    7.86499161806168878
   -8.49094169566845736
    7.86759389060407699
    7.86741901982091818
    7.86499161806170033
   -8.46739455811479580
    7.84577535303372464
    7.84577535303371398
    7.84300628132642164
   -8.57948981444551606
    7.94700497295108121
    7.94963407101353159
    7.94963407101353869
   -8.15412307395967595
    7.55475119547750573
    7.55552329822264035
    7.55301958927733974
   -8.15971020505396716
    7.56008271908056884
    7.56054514797556987
    7.55819486556849185
   -8.13704935106020066
    7.53908706471287449
    7.53970292056908420
    7.53705007157958207
   -8.23910640101581038
    7.63173192850978843
    7.63363794240086957
    7.63426145415602520
   -8.15971020505397782
    7.56054514797557786
    7.56008271908057861
    7.55819486556849629
   -8.15412307395968661
    7.55552329822265101
    7.55475119547751373
    7.55301958927734862
   -8.13704935106020422
    7.53970292056908420
    7.53908706471287537
    7.53705007157958917
   -8.23910640101581215
    7.63173192850979287
    7.63426145415601720
    7.63363794240087934
   -8.06735587769661677
    7.47497221661887501
    7.47512215039671091
    7.47203933513819951
   -8.06735587769660789
    7.47512215039671002
    7.47497221661887146
    7.47203933513820484
   -8.03947491964042804
    7.44928788770199191
    7.44928788770198391
    7.44606670623301259
   -8.14583948567654836
    7.54472543079975466
    7.54783790382887343
    7.54783790382887698
   -8.46739455811480646
    7.84300628132641009
    7.84577535303371576
    7.84577535303372731
   -8.49094169566844847
    7.86499161806169944
    7.86741901982090308
    7.86759389060406189
   -8.49094169566845025
    7.86499161806169944
    7.86759389060406100
    7.86741901982091196
   -8.57948981444550540
    7.94963407101351560
    7.94700497295109631
    7.94963407101351915
   -9.73520574699197461
    9.01928457317189469
    9.02060718292781161
    9.02060718292779740
   -9.74480781285594233
    9.02844493041367713
    9.02923988022164181
    9.02950446219064418
   -9.74480781285594588
    9.02844493041366292
    9.02950446219063885
    9.02923988022165247
   -9.86735196959767435
    9.14304231266636869
    9.14196962527067036
    9.14304231266636336
   -9.74480781285593878
    9.02923988022166135
    9.02844493041367002
    9.02950446219064595
   -9.73520574699197105
    9.02060718292781161
    9.01928457317191246
    9.02060718292781161
   -9.74480781285593700
    9.02950446219064240
    9.02844493041366114
    9.02923988022164004
   -9.86735196959766725
    9.14304231266636869
    9.14304231266636869
    9.14196962527067214
   -9.74480781285593700
    9.02923988022164359
    9.02950446219063529
    9.02844493041367357
   -9.74480781285593700
    9.02950446219063885
    9.02923988022164359
    9.02844493041367180
   -9.73520574699197461
    9.02060718292780450
    9.02060718292780983
    9.01928457317189824
   -9.86735196959767968
    9.14196962527066859
    9.14304231266637402
    9.14304231266636869
  -10.26093734582596895
    9.50740761711949744
    9.50771665297488155
    9.50771665297487090
  -10.26093734582596895
    9.50771665297486557
    9.50740761711949744
    9.50771665297487445
  -10.26093734582596539
    9.50771665297486201
    9.50771665297486912
    9.50740761711950100
  -10.40034380900843658
    9.63687675186872816
    9.63687675186873527
    9.63687675186872461
   -8.03947491964040672
    7.44606670623298594
    7.44928788770197325
    7.44928788770196793
   -8.06735587769662210
    7.47203933513820751
    7.47497221661887412
    7.47512215039672423
   -8.06735587769663098
    7.47203933513820040
    7.47512215039672245
    7.47497221661889188
   -8.14583948567652527
    7.54783790382884590
    7.54472543079975289
    7.54783790382884767
   -8.13704935106019889
    7.53705007157957318
    7.53908706471287626
    7.53970292056908509
   -8.15412307395967240
    7.55301958927735750
    7.55475119547749685
    7.55552329822262791
   -8.15971020505396716
    7.55819486556849451
    7.56008271908056173
    7.56054514797556898
   -8.23910640101582104
    7.63426145415602786
    7.63173192850979554
    7.63363794240087934
   -8.13704935106020066
    7.53705007157959006
    7.53970292056908509
    7.53908706471288692
   -8.15971020505397071
    7.55819486556848741
    7.56054514797556276
    7.56008271908056084
   -8.15412307395969016
    7.55301958927736905
    7.55552329822267765
    7.55475119547752616
   -8.23910640101580327
    7.63363794240087401
    7.63173192850978310
    7.63426145415601276
   -8.49094169566844137
    7.86741901982089509
    7.86499161806168523
    7.86759389060404501
   -8.46739455811480290
    7.84577535303372553
    7.84300628132641897
    7.84577535303373175
   -8.49094169566843426
    7.86759389060402459
    7.86499161806169855
    7.86741901982089598
   -8.57948981444552672
    7.94963407101354402
    7.94963407101352804
    7.94700497295108210
   -8.15412307395966884
    7.55475119547749241
    7.55301958927732908
    7.55552329822263502
   -8.13704935106020066
    7.53908706471287893
    7.53705007157957674
    7.53970292056907621
   -8.15971020505395828
    7.56008271908056351
    7.55819486556849540
    7.56054514797558763
   -8.23910640101582104
    7.63426145415604029
    7.63363794240088289
    7.63173192850979021
   -8.06735587769662210
    7.47497221661887234
    7.47203933513819329
    7.47512215039671357
   -8.03947491964039784
    7.44928788770198480
    7.44606670623299483
    7.44928788770197148
   -8.06735587769662921
    7.47512215039672334
    7.47203933513822172
    7.47497221661887501
   -8.14583948567652349
    7.54783790382884945
    7.54783790382885389
    7.54472543079976443
   -8.15971020505397426
    7.56054514797555743
    7.55819486556849185
    7.56008271908055285
   -8.13704935106020066
    7.53970292056905844
    7.53705007157958207
    7.53908706471288514
   -8.15412307395969727
    7.55552329822264301
    7.55301958927736639
    7.55475119547753682
   -8.23910640101580860
    7.63363794240086424
    7.63426145415601276
    7.63173192850979021
   -8.49094169566843604
    7.86741901982088532
    7.86759389060405034
    7.86499161806168345
   -8.49094169566843249
    7.86759389060405034
    7.86741901982088976
    7.86499161806169944
   -8.46739455811479935
    7.84577535303371487
    7.84577535303372464
    7.84300628132642252
   -8.57948981444551784
    7.94700497295109098
    7.94963407101353159
    7.94963407101351915
   -8.15412307395965996
    7.55475119547748708
    7.55552329822263413
    7.55301958927732375
   -8.15971020505397426
    7.56008271908057061
    7.56054514797556987
    7.55819486556849895
   -8.13704935106021665
    7.53908706471287982
    7.53970292056910196
    7.53705007157959450
   -8.23910640101581571
    7.63173192850980264
    7.63363794240087490
    7.63426145415603141
   -8.15971020505396893
    7.56054514797560717
    7.56008271908057772
    7.55819486556850073
   -8.15412307395965996
    7.55552329822262614
    7.55475119547750573
    7.55301958927732731
   -8.13704935106021132
    7.53970292056909308
    7.53908706471288248
    7.53705007157960072
   -8.23910640101581571
    7.63173192850979465
    7.63426145415603141
    7.63363794240087934
   -8.06735587769661322
    7.47497221661887234
    7.47512215039671091
    7.47203933513819329
   -8.06735587769661322
    7.47512215039671268
    7.47497221661886790
    7.47203933513819774
   -8.03947491964042271
    7.44928788770199102
    7.44928788770198569
    7.44606670623300548
   -8.14583948567654659
    7.54472543079976887
    7.54783790382887343
    7.54783790382887698
   -8.46739455811479758
    7.84300628132641098
    7.84577535303370954
    7.84577535303371132
   -8.49094169566845203
    7.86499161806170122
    7.86741901982090397
    7.86759389060405923
   -8.49094169566844847
    7.86499161806170299
    7.86759389060405567
    7.86741901982090575
   -8.57948981444550540
    7.94963407101352626
    7.94700497295107766
    7.94963407101351471
   -9.73520574699198704
    9.01928457317191246
    9.02060718292781338
    9.02060718292782227
   -9.74480781285593345
    9.02844493041367180
    9.02923988022163293
    9.02950446219063885
   -9.74480781285594233
    9.02844493041366469
    9.02950446219063174
    9.02923988022164181
   -9.86735196959765837
    9.14304231266635448
    9.14196962527065082
    9.14304231266635270
   -9.74480781285593700
    9.02923988022164181
    9.02844493041367535
    9.02950446219066194
   -9.73520574699199592
    9.02060718292782582
    9.01928457317190180
    9.02060718292781871
   -9.74480781285595121
    9.02950446219063352
    9.02844493041368246
    9.02923988022165958
   -9.86735196959767791
    9.14304231266637224
    9.14304231266635625
    9.14196962527066148
   -9.74480781285593878
    9.02923988022164536
    9.02950446219066549
    9.02844493041366825
   -9.74480781285595299
    9.02950446219065128
    9.02923988022165069
    9.02844493041367890
   -9.73520574699199237
    9.02060718292782227
    9.02060718292781694
    9.01928457317190180
   -9.86735196959767080
    9.14196962527064017
    9.14304231266636158
    9.14304231266636869
  -10.26093734582596184
    9.50740761711947258
    9.50771665297487267
    9.50771665297488333
  -10.26093734582595651
    9.50771665297486379
    9.50740761711947613
    9.50771665297486379
  -10.26093734582596539
    9.50771665297485846
    9.50771665297488866
    9.50740761711948501
  -10.40034380900843125
    9.63687675186871395
    9.63687675186873172
    9.63687675186874415
   -8.03947491964040850
    7.44606670623298150
    7.44928788770196171
    7.44928788770197947
   -8.06735587769660611
    7.47203933513818885
    7.47497221661884481
    7.47512215039671002
   -8.06735587769659368
    7.47203933513817464
    7.47512215039669847
    7.47497221661884392
   -8.14583948567654303
    7.54783790382888142
    7.54472543079976887
    7.54783790382886011
   -8.13704935106020599
    7.53705007157957407
    7.53908706471288781
    7.53970292056907976
   -8.15412307395968305
    7.55301958927734862
    7.55475119547753149
    7.55552329822263413
   -8.15971020505397604
    7.55819486556850073
    7.56008271908055995
    7.56054514797557431
   -8.23910640101581038
    7.63426145415602786
    7.63173192850979198
    7.63363794240087845
   -8.13704935106020777
    7.53705007157958651
    7.53970292056908775
    7.53908706471287537
   -8.15971020505395295
    7.55819486556848918
    7.56054514797556010
    7.56008271908054930
   -8.15412307395968305
    7.55301958927736283
    7.55552329822266078
    7.55475119547751195
   -8.23910640101582104
    7.63363794240087667
    7.63173192850981064
    7.63426145415602431
   -8.49094169566846446
    7.86741901982091729
    7.86499161806171276
    7.86759389060407788
   -8.46739455811478869
    7.84577535303369622
    7.84300628132639499
    7.84577535303370865
   -8.49094169566845380
    7.86759389060405301
    7.86499161806168612
    7.86741901982090752
   -8.57948981444551073
    7.94963407101352537
    7.94963407101352093
    7.94700497295108477
   -8.15412307395967240
    7.55475119547750928
    7.55301958927733796
    7.55552329822263147
   -8.13704935106019711
    7.53908706471288959
